svm_type c_svc
kernel_type rbf
gamma 4.8828125E-4
nr_class 2
total_sv 421
rho 101.12883063549995
label 1 0
probA -0.913064415801748
probB 0.030075970695750326
nr_sv 211 210
SV
32768.0 1:0.66366 2:0.0555556 3:0.435525 4:0.5 8:0.166667 9:1.0 10:0.999997 11:0.0970149 12:0.0162632 13:0.00806803 14:0.138107 15:0.0435321 16:0.0052439 18:0.122807 19:0.363636 20:0.277778 21:0.166667 22:0.25 23:1.0 26:0.25 28:0.5 29:0.5 31:0.193939 35:0.483833 36:0.797872 37:0.807692 38:0.603567 39:0.558309 40:0.476449 41:0.51866 
32768.0 1:0.467162 2:0.166667 3:0.122629 4:0.4 6:0.4 8:0.166667 9:1.0 11:0.167164 12:0.0715563 13:0.0399433 14:0.431176 15:0.166216 16:0.165204 18:0.175439 19:0.0909091 20:0.5 21:0.388889 22:0.166667 26:0.3 28:0.4 29:0.6 30:0.25 31:0.380952 35:0.706862 36:0.914894 37:0.861538 38:0.559671 39:0.544461 40:0.418478 41:0.543793 
28259.920088495786 1:0.761908 2:0.0925926 3:0.333333 4:0.5 6:0.666667 8:0.222222 9:1.0 11:0.19403 12:0.091642 13:0.0198647 14:0.393221 15:0.140107 16:0.0325159 18:0.157895 19:0.363636 20:0.333333 21:0.166667 22:0.333333 26:0.166667 28:0.5 29:0.5 30:0.5 31:0.328205 35:0.464067 36:0.768322 37:0.717949 38:0.497942 39:0.260933 40:0.336957 41:0.29246 
32768.0 1:0.467162 2:0.166667 3:0.122629 4:0.4 6:0.2 8:0.0666667 9:1.0 10:0.999997 11:0.229851 12:0.122965 13:0.0542248 14:0.510948 15:0.211834 16:0.128101 18:0.175439 19:0.0909091 20:0.5 21:0.444444 22:0.166667 26:0.2 28:0.4 29:0.6 30:0.111111 31:0.152381 35:0.755245 36:0.93617 37:0.861538 38:0.576132 39:0.40379 40:0.440217 41:0.417365 
32768.0 1:0.467162 2:0.185185 3:0.111481 4:0.363636 6:0.545455 8:0.181818 9:1.0 10:0.999997 11:0.17232 12:0.0796331 13:0.030103 14:0.221123 15:0.133379 16:0.0731723 18:0.192982 19:0.0909091 20:0.444444 21:0.388889 22:0.166667 26:0.181818 28:0.363636 29:0.636364 30:0.375 31:0.426667 35:0.704939 36:0.914366 37:0.881119 38:0.517833 39:0.386297 40:0.360507 41:0.411272 
32768.0 1:0.467162 2:0.277778 3:0.0766434 4:0.375 6:0.375 8:0.145833 9:1.0 10:0.999997 11:0.18097 12:0.0731876 13:0.023083 14:0.415221 15:0.175084 16:0.0793817 18:0.280702 19:0.0909091 20:0.611111 21:0.555556 22:0.166667 23:1.0 26:0.3125 28:0.375 29:0.625 30:0.272727 31:0.373333 35:0.79364 36:0.939162 37:0.875 38:0.55144 39:0.458455 40:0.407609 41:0.479056 
32768.0 1:0.467162 2:0.166667 3:0.122629 4:0.3 6:0.4 8:0.3 9:1.0 10:0.999997 11:0.158209 12:0.0931053 13:0.0510908 14:0.243403 15:0.167265 16:0.13795 18:0.175439 19:0.0909091 20:0.388889 21:0.388889 22:0.166667 26:0.2 28:0.3 29:0.7 30:0.25 31:0.685714 35:0.706862 36:0.914894 37:0.861538 38:0.533608 39:0.407434 40:0.384058 41:0.417365 
1419.5241534971105 1:0.467162 2:0.166667 3:0.122629 4:0.3 5:0.6 6:0.2 7:0.4 11:0.626866 12:0.962603 13:0.123746 14:0.904475 15:0.618924 16:0.638136 18:0.175439 19:0.0909091 20:0.388889 21:0.333333 22:0.166667 24:1.0 26:0.8 28:0.3 29:0.1 30:0.428571 32:0.380952 34:0.4 35:0.658479 36:0.893617 37:0.861538 38:0.382716 40:0.184783 
32768.0 1:0.467162 2:0.0555556 3:0.306574 4:0.5 9:1.0 11:0.238806 12:0.134251 13:0.142592 14:0.279872 15:0.10266 16:0.298599 18:0.0701754 19:0.0909091 20:0.277778 21:0.166667 22:0.166667 26:0.5 28:0.5 29:0.5 35:0.483833 36:0.797872 37:0.807692 38:0.584362 39:0.353499 40:0.451087 41:0.370145 
32768.0 1:0.467162 2:0.0740741 3:0.245259 4:0.6 6:0.4 11:0.319403 12:0.359456 13:0.234248 14:0.677964 15:0.326413 16:0.100445 18:0.0877193 19:0.0909091 20:0.222222 21:0.111111 22:0.166667 28:0.6 29:0.4 30:0.333333 35:0.331655 36:0.595745 37:0.430769 38:0.470508 40:0.333333 
32768.0 1:0.467162 2:0.111111 3:0.175185 4:0.428571 6:0.285714 8:0.0952381 9:1.0 11:0.189765 12:0.0435812 13:0.0173407 14:0.475434 15:0.0603474 16:0.0539058 18:0.122807 19:0.0909091 20:0.388889 21:0.277778 22:0.166667 26:0.428571 28:0.428571 29:0.571429 30:0.166667 31:0.193939 35:0.610026 36:0.868432 37:0.769231 38:0.73594 39:0.749271 40:0.445652 41:0.616908 
32768.0 1:0.467162 2:0.166667 3:0.122629 4:0.3 6:0.8 8:0.2 11:0.328358 12:0.25854 13:0.14138 14:0.267989 15:0.336561 16:0.303346 18:0.175439 19:0.0909091 20:0.277778 21:0.277778 22:0.166667 26:0.4 28:0.3 29:0.7 30:0.666667 31:0.457143 35:0.610096 36:0.87234 37:0.861538 38:0.492455 39:0.327988 40:0.32971 41:0.342727 
32768.0 1:0.467162 2:0.222222 3:0.0943303 4:0.461538 6:0.153846 8:0.0512821 9:1.0 10:0.999997 11:0.189437 12:0.0715977 13:0.0327806 14:0.398633 15:0.133105 16:0.0935928 18:0.22807 19:0.0909091 20:0.5 21:0.555556 22:0.166667 26:0.538462 28:0.461538 29:0.538462 30:0.0909091 31:0.12549 35:0.806713 36:0.944228 37:0.828402 38:0.579561 39:0.41691 40:0.443841 41:0.447068 
32768.0 1:0.294746 2:0.314815 3:0.0429836 4:0.444444 6:0.444444 8:0.0740741 9:1.0 11:0.228856 12:0.177933 13:0.114647 14:0.504183 15:0.302145 16:0.305596 18:0.298246 20:0.5 21:0.5 22:0.0833333 25:0.166667 26:0.388889 28:0.444444 29:0.5 30:0.4 31:0.203175 33:0.25 35:0.783591 36:0.932493 37:0.837607 38:0.51166 39:0.450437 40:0.355072 41:0.458492 
32768.0 1:0.467162 2:0.0925926 3:0.204382 4:0.5 6:0.666667 11:0.308458 12:0.200064 13:0.0967657 14:0.457647 15:0.0792794 16:0.15774 18:0.105263 19:0.0909091 20:0.222222 21:0.111111 22:0.166667 26:0.333333 28:0.5 29:0.5 30:0.666667 35:0.352992 36:0.650118 37:0.538462 38:0.504801 39:0.368076 40:0.346014 41:0.362529 
32768.0 1:0.467162 2:0.037037 3:0.408765 8:0.333333 10:0.999997 11:0.462687 12:0.390636 13:0.260144 14:0.341533 15:0.496428 16:0.280262 18:0.0526316 19:0.0909091 20:0.222222 21:0.111111 22:0.166667 29:1.0 31:0.457143 35:0.383428 36:0.70922 37:0.717949 38:0.510974 39:0.182216 40:0.28442 41:0.0952018 
32768.0 1:0.467162 2:0.203704 3:0.102191 4:0.333333 6:0.333333 8:0.111111 9:1.0 11:0.216418 12:0.127923 13:0.0545157 14:0.496929 15:0.167927 16:0.141058 18:0.210526 19:0.0909091 20:0.5 21:0.388889 22:0.166667 25:0.25 26:0.333333 28:0.333333 29:0.583333 30:0.25 31:0.266667 33:0.25 35:0.731084 36:0.916076 37:0.807692 38:0.532236 39:0.4293 40:0.382246 41:0.418888 
32768.0 1:0.467162 2:0.0925926 3:0.204382 4:0.333333 6:0.666667 8:0.111111 11:0.199005 12:0.162404 13:0.118233 14:0.350193 15:0.2913 16:0.230397 18:0.105263 19:0.0909091 20:0.222222 21:0.166667 22:0.166667 26:0.333333 28:0.333333 29:0.666667 30:0.5 31:0.213333 35:0.464067 36:0.768322 37:0.717949 38:0.603567 39:0.37172 40:0.476449 41:0.377761 
32768.0 1:0.467162 2:0.222222 3:0.0943303 4:0.384615 6:0.461538 8:0.102564 9:1.0 10:0.999997 11:0.148106 12:0.0801773 13:0.0467597 14:0.287039 15:0.143817 16:0.129147 18:0.22807 19:0.0909091 20:0.555556 21:0.444444 22:0.166667 26:0.230769 28:0.384615 29:0.615385 30:0.333333 31:0.25098 35:0.732278 36:0.919048 37:0.828402 38:0.540466 39:0.44898 40:0.393116 41:0.469155 
32768.0 1:0.467162 2:0.12963 3:0.153287 4:0.375 6:0.5 8:0.125 9:1.0 11:0.373134 12:0.259893 13:0.136018 14:0.562464 15:0.402912 16:0.374824 18:0.140351 19:0.0909091 20:0.388889 21:0.277778 22:0.166667 26:0.625 28:0.375 29:0.625 30:0.333333 31:0.266667 35:0.604791 36:0.864362 37:0.807692 38:0.469136 39:0.145773 40:0.298913 41:0.283321 
32768.0 1:0.467162 2:0.111111 3:0.175185 4:0.428571 6:0.285714 8:0.0952381 9:1.0 10:0.999997 11:0.189765 12:0.114534 13:0.0443141 14:0.334821 15:0.203147 16:0.145259 18:0.122807 19:0.0909091 20:0.388889 21:0.277778 22:0.166667 26:0.571429 28:0.428571 29:0.571429 30:0.166667 31:0.193939 35:0.610026 36:0.868432 37:0.769231 38:0.587106 39:0.524781 40:0.445652 41:0.515613 
32768.0 1:0.467162 2:0.148148 3:0.136255 4:0.333333 8:0.259259 9:1.0 10:0.999997 11:0.210614 12:0.130212 13:0.0587505 14:0.332289 15:0.229125 16:0.127364 18:0.157895 19:0.0909091 20:0.444444 21:0.444444 22:0.166667 26:0.555556 28:0.333333 29:0.666667 31:0.574359 35:0.766857 36:0.945626 37:0.957265 38:0.517147 39:0.360058 40:0.360507 41:0.376238 
32768.0 1:0.294746 2:0.148148 3:0.0859673 4:0.444444 6:0.666667 8:0.0740741 9:1.0 10:0.999997 11:0.233831 12:0.163908 13:0.103265 14:0.316811 15:0.137886 16:0.113036 18:0.140351 20:0.277778 21:0.277778 22:0.0833333 28:0.444444 29:0.555556 30:0.5 31:0.177778 35:0.605579 36:0.866824 37:0.837607 38:0.524691 39:0.345481 40:0.351449 41:0.361005 
32768.0 1:0.467162 2:0.259259 3:0.081753 4:0.4 6:0.533333 8:0.111111 9:1.0 11:0.154229 12:0.0492946 13:0.013637 14:0.382496 15:0.14223 16:0.0359789 18:0.263158 19:0.0909091 20:0.5 21:0.5 22:0.166667 26:0.4 28:0.4 29:0.6 30:0.4 31:0.280702 35:0.771688 36:0.93617 37:0.861538 38:0.569959 39:0.438776 40:0.445652 41:0.458492 
32768.0 1:0.467162 2:0.185185 3:0.111481 4:0.363636 6:0.363636 8:0.121212 9:1.0 10:0.999997 11:0.169607 12:0.0471244 13:0.0160523 14:0.391163 15:0.117626 16:0.0727046 18:0.192982 19:0.0909091 20:0.388889 21:0.388889 22:0.166667 23:1.0 26:0.363636 28:0.363636 29:0.636364 30:0.25 31:0.284444 35:0.688337 36:0.896782 37:0.783217 38:0.674211 39:0.568513 40:0.530797 41:0.53313 
32768.0 1:0.467162 2:0.0555556 3:0.306574 8:0.333333 10:0.999997 11:0.320896 12:0.219288 13:0.128248 14:0.378389 15:0.210405 16:0.175554 18:0.0701754 19:0.0909091 20:0.277778 21:0.166667 22:0.166667 26:0.25 29:1.0 31:0.533333 35:0.483833 36:0.797872 37:0.807692 38:0.491084 39:0.342566 40:0.327899 41:0.353389 
32768.0 1:0.467162 2:0.12963 3:0.153287 4:0.375 8:0.125 11:0.272388 12:0.199304 13:0.106145 14:0.466507 15:0.257481 16:0.174598 18:0.140351 19:0.0909091 20:0.444444 21:0.388889 22:0.166667 26:0.375 28:0.375 29:0.625 31:0.266667 35:0.725749 36:0.930851 37:0.942308 38:0.552812 39:0.370262 40:0.40942 41:0.3869 
32768.0 1:0.66366 2:0.0555556 3:0.435525 4:0.5 8:0.166667 9:1.0 10:0.999997 11:0.186567 12:0.0509156 13:0.0370502 14:0.38637 15:0.0819597 16:0.127153 18:0.122807 19:0.363636 20:0.222222 21:0.166667 22:0.25 23:1.0 26:0.25 28:0.5 29:0.5 31:0.193939 35:0.483833 36:0.797872 37:0.807692 38:0.829904 39:0.34621 40:0.775362 41:0.394516 
32768.0 1:0.467162 2:0.12963 3:0.153287 4:0.25 8:0.166667 9:1.0 11:0.246269 12:0.115095 13:0.0399555 14:0.432343 15:0.211383 16:0.135553 18:0.140351 19:0.0909091 20:0.444444 21:0.388889 22:0.166667 23:1.0 26:0.25 28:0.25 29:0.75 31:0.355556 35:0.725749 36:0.930851 37:0.942308 38:0.55144 39:0.446793 40:0.407609 41:0.458492 
32768.0 1:0.467162 2:0.148148 3:0.136255 4:0.444444 6:0.222222 8:0.185185 9:1.0 11:0.18408 12:0.200261 13:0.158397 14:0.334849 15:0.376019 16:0.278677 18:0.157895 19:0.0909091 20:0.444444 21:0.388889 22:0.166667 26:0.222222 28:0.444444 29:0.555556 30:0.125 31:0.410256 35:0.713097 36:0.919359 37:0.837607 38:0.533608 39:0.206997 40:0.387681 41:0.239909 
32768.0 1:0.294746 2:0.314815 3:0.0429836 4:0.444444 6:0.666667 8:0.0740741 9:1.0 10:0.999997 11:0.137645 12:0.0440008 13:0.0231513 14:0.230866 15:0.0909323 16:0.0409191 18:0.298246 20:0.388889 21:0.444444 22:0.0833333 26:0.166667 28:0.444444 29:0.555556 30:0.666667 31:0.203175 35:0.729831 36:0.919359 37:0.837607 38:0.555556 39:0.385569 40:0.413043 41:0.402894 
32768.0 1:0.467162 2:0.0185185 3:0.613147 8:0.333333 9:1.0 10:0.999998 11:0.283582 12:0.0905284 13:0.101706 14:0.318944 15:0.132009 16:0.196424 17:1.0 18:0.0350877 19:0.0909091 20:0.388889 21:0.277778 22:0.166667 29:1.0 31:0.355556 35:0.241916 36:0.531915 37:0.538462 38:0.478738 40:0.311594 41:0.2262 
32768.0 1:0.467162 2:0.0925926 3:0.204382 4:0.333333 6:0.333333 8:0.111111 9:1.0 11:0.268657 12:0.144182 13:0.0613285 14:0.476996 15:0.194089 16:0.141326 18:0.105263 19:0.0909091 20:0.333333 21:0.222222 22:0.166667 26:0.666667 28:0.333333 29:0.666667 30:0.2 31:0.213333 35:0.544706 36:0.827423 37:0.717949 38:0.658436 39:0.41035 40:0.548913 41:0.402133 
32768.0 1:0.467162 2:0.12963 3:0.153287 4:0.375 6:0.5 8:0.0833333 9:1.0 11:0.261194 12:0.127259 13:0.0554943 14:0.564945 15:0.254705 16:0.126662 18:0.140351 19:0.0909091 20:0.388889 21:0.277778 22:0.166667 26:0.5 28:0.375 29:0.625 30:0.333333 31:0.177778 35:0.604791 36:0.864362 37:0.807692 38:0.555556 39:0.384111 40:0.413043 41:0.389947 
32768.0 1:0.294746 2:0.111111 3:0.110529 4:0.428571 6:0.285714 8:0.0952381 9:1.0 10:0.999997 11:0.168443 12:0.100051 13:0.0682507 14:0.356678 15:0.101616 16:0.127553 18:0.105263 20:0.277778 21:0.277778 22:0.0833333 26:0.285714 28:0.428571 29:0.571429 30:0.166667 31:0.213333 35:0.610026 36:0.868432 37:0.769231 38:0.521948 39:0.412536 40:0.355072 41:0.431074 
20546.402693513603 1:0.467162 2:0.0185185 3:0.613147 8:0.666667 11:0.656716 12:0.476381 13:0.324513 14:0.159472 15:0.620765 16:0.0266697 18:0.0350877 19:0.0909091 20:0.166667 21:0.0555556 22:0.166667 29:1.0 31:0.711111 35:0.241916 36:0.531915 37:0.538462 38:0.418381 40:0.231884 41:0.083016 
32768.0 1:0.467162 2:0.166667 3:0.122629 4:0.4 6:0.6 8:0.166667 9:1.0 10:0.999997 11:0.21194 12:0.0998695 13:0.0268523 14:0.374348 15:0.119057 16:0.0422116 18:0.175439 19:0.0909091 20:0.444444 21:0.333333 22:0.166667 26:0.4 28:0.4 29:0.6 30:0.428571 31:0.380952 35:0.658479 36:0.893617 37:0.861538 38:0.599451 39:0.424198 40:0.471014 41:0.41965 
32768.0 1:0.467162 2:0.203704 3:0.102191 4:0.333333 6:0.333333 8:0.194444 9:1.0 10:0.999997 11:0.20398 12:0.154578 13:0.110067 14:0.362095 15:0.254006 16:0.210402 18:0.210526 19:0.0909091 20:0.555556 21:0.5 22:0.166667 26:0.333333 28:0.333333 29:0.666667 30:0.2 31:0.466667 35:0.786622 36:0.945626 37:0.897436 38:0.573388 39:0.336735 40:0.436594 41:0.364052 
32768.0 1:0.467162 2:0.166667 3:0.122629 4:0.4 6:0.2 8:0.133333 9:1.0 11:0.179104 12:0.0418901 13:0.0265769 14:0.312825 15:0.0466643 16:0.0385278 18:0.175439 19:0.0909091 20:0.388889 21:0.388889 22:0.166667 26:0.1 28:0.4 29:0.6 30:0.125 31:0.304762 35:0.6886 36:0.893617 37:0.753846 38:0.554184 39:0.463557 40:0.411232 41:0.418888 
32768.0 1:0.761908 2:0.12963 3:0.25 4:0.375 6:0.25 8:0.166667 10:0.999997 11:0.227612 12:0.170604 13:0.113848 14:0.384638 15:0.262697 16:0.151497 18:0.192982 19:0.363636 20:0.444444 21:0.333333 22:0.333333 26:0.125 28:0.375 29:0.625 30:0.142857 31:0.284444 35:0.66527 36:0.897606 37:0.807692 38:0.492455 39:0.262391 40:0.32971 41:0.278751 
32768.0 1:0.467162 2:0.203704 3:0.102191 4:0.5 6:0.333333 8:0.111111 9:1.0 10:0.999997 11:0.161692 12:0.0656171 13:0.0178772 14:0.384023 15:0.163228 16:0.0476797 18:0.210526 19:0.0909091 20:0.555556 21:0.5 22:0.166667 26:0.333333 28:0.5 29:0.5 30:0.2 31:0.266667 35:0.786622 36:0.945626 37:0.897436 38:0.610425 39:0.41035 40:0.485507 41:0.428789 
32768.0 1:0.467162 2:0.185185 3:0.111481 4:0.181818 6:0.545455 8:0.272727 9:1.0 11:0.253731 12:0.156875 13:0.112405 14:0.289136 15:0.245334 16:0.363089 18:0.192982 19:0.0909091 20:0.388889 21:0.388889 22:0.166667 26:0.181818 28:0.181818 29:0.818182 30:0.375 31:0.64 35:0.704939 36:0.914366 37:0.881119 38:0.532236 39:0.282799 40:0.380435 41:0.322925 
32768.0 1:0.467162 2:0.111111 3:0.175185 4:0.428571 6:0.571429 8:0.0952381 9:1.0 10:0.999997 11:0.121535 12:0.0732111 13:0.048022 14:0.240754 15:0.162515 16:0.149476 18:0.122807 19:0.0909091 20:0.333333 21:0.222222 22:0.166667 26:0.285714 28:0.428571 29:0.571429 30:0.4 31:0.193939 35:0.540907 36:0.825011 37:0.769231 38:0.567901 39:0.431487 40:0.413043 41:0.399086 
32768.0 1:0.467162 2:0.185185 3:0.111481 4:0.272727 6:0.363636 8:0.242424 9:1.0 10:0.999997 11:0.237449 12:0.171845 13:0.117628 14:0.380176 15:0.255415 16:0.26175 18:0.192982 19:0.0909091 20:0.555556 21:0.444444 22:0.166667 26:0.0909091 28:0.272727 29:0.727273 30:0.222222 31:0.568889 35:0.748923 36:0.93195 37:0.881119 38:0.484225 39:0.30758 40:0.320652 41:0.326733 
32768.0 1:0.467162 2:0.0555556 3:0.306574 4:0.25 8:0.166667 10:0.999997 11:0.276119 12:0.177407 13:0.164924 14:0.275753 15:0.278388 16:0.188648 18:0.0701754 19:0.0909091 20:0.222222 21:0.166667 22:0.166667 26:0.25 28:0.25 29:0.75 31:0.266667 35:0.483833 36:0.797872 37:0.807692 38:0.569273 39:0.295918 40:0.431159 41:0.357959 
32768.0 1:0.68438 2:0.0740741 3:0.359298 4:0.2 8:0.2 10:0.999997 11:0.18806 12:0.144916 13:0.206827 14:0.265778 15:0.225347 16:0.52166 18:0.122807 19:0.272727 20:0.333333 21:0.222222 22:0.25 26:0.2 28:0.2 29:0.8 31:0.290909 35:0.561712 36:0.851064 37:0.861538 38:0.545953 39:0.400875 40:0.387681 41:0.418888 
32768.0 1:0.467162 2:0.111111 3:0.175185 4:0.428571 6:0.285714 8:0.190476 9:1.0 10:0.999997 11:0.15565 12:0.100582 13:0.064994 14:0.315673 15:0.195597 16:0.161591 18:0.122807 19:0.0909091 20:0.222222 21:0.277778 22:0.166667 26:0.285714 28:0.428571 29:0.571429 30:0.166667 31:0.387879 35:0.610026 36:0.868432 37:0.769231 38:0.565844 39:0.479592 40:0.445652 41:0.501142 
32768.0 1:0.467162 2:0.0555556 3:0.306574 4:1.0 6:0.5 8:0.166667 9:1.0 10:0.999997 11:0.00746269 12:0.0666473 13:0.158121 14:0.0828641 15:0.0682932 16:0.199456 18:0.0701754 19:0.0909091 20:0.166667 21:0.0555556 22:0.166667 26:0.75 28:1.0 30:0.5 31:0.266667 35:0.196261 36:0.398936 37:0.269231 38:0.497942 39:0.344023 40:0.336957 41:0.278751 
32768.0 1:0.467162 2:0.037037 3:0.408765 8:0.555556 10:0.999997 11:0.233831 12:0.144562 13:0.161884 14:0.21684 15:0.211858 16:0.142466 18:0.0526316 19:0.0909091 20:0.166667 21:0.111111 22:0.166667 29:1.0 31:0.761905 35:0.383428 36:0.70922 37:0.717949 38:0.52332 39:0.478134 40:0.32971 41:0.421173 
32768.0 1:0.761908 2:0.111111 3:0.285714 4:0.285714 6:0.285714 8:0.285714 9:1.0 11:0.185501 12:0.0932744 13:0.0453438 14:0.225435 15:0.127728 16:0.073609 18:0.175439 19:0.363636 20:0.388889 21:0.222222 22:0.333333 26:0.285714 28:0.285714 29:0.714286 30:0.2 31:0.457143 35:0.514819 36:0.781589 37:0.615385 38:0.592593 39:0.411079 40:0.418478 41:0.429551 
2094.7952903342507 1:0.467162 2:0.0740741 3:0.245259 4:0.2 6:0.4 8:0.266667 9:1.0 11:0.18209 12:0.0825562 13:0.0478959 14:0.195988 15:0.184293 16:0.111153 18:0.0877193 19:0.0909091 20:0.222222 21:0.166667 22:0.166667 26:0.2 28:0.2 29:0.8 30:0.25 31:0.474074 35:0.464946 36:0.765957 37:0.646154 38:0.593278 39:0.526239 40:0.436594 41:0.476771 
32768.0 1:0.467162 2:0.0740741 3:0.245259 4:0.6 6:0.8 8:0.133333 11:0.19403 12:0.204973 13:0.139335 14:0.261456 15:0.347787 16:0.241143 18:0.0877193 19:0.0909091 20:0.222222 21:0.111111 22:0.166667 28:0.6 29:0.4 30:0.666667 31:0.237037 35:0.368179 36:0.680851 37:0.646154 38:0.550069 39:0.40379 40:0.393116 41:0.39604 
32768.0 1:0.467162 2:0.12963 3:0.153287 4:0.375 6:0.5 8:0.0833333 9:1.0 10:0.999997 11:0.235075 12:0.133519 13:0.0682138 14:0.423052 15:0.129862 16:0.115758 18:0.140351 19:0.0909091 20:0.333333 21:0.222222 22:0.166667 26:0.375 28:0.375 29:0.625 30:0.4 31:0.177778 35:0.521484 36:0.797872 37:0.673077 38:0.600823 39:0.440233 40:0.472826 41:0.453922 
32768.0 1:0.467162 2:0.148148 3:0.136255 4:0.222222 6:0.444444 8:0.259259 9:1.0 11:0.240464 12:0.145838 13:0.0587775 14:0.514819 15:0.322327 16:0.177982 18:0.157895 19:0.0909091 20:0.333333 21:0.333333 22:0.166667 26:0.222222 28:0.222222 29:0.777778 30:0.285714 31:0.574359 35:0.659338 36:0.893092 37:0.837607 38:0.556927 39:0.408163 40:0.413043 41:0.409749 
32323.035964928727 1:0.467162 2:0.037037 3:0.408765 4:0.333333 6:0.666667 8:0.222222 9:1.0 10:0.999997 11:0.114428 12:0.0603228 13:0.0553357 14:0.150352 15:0.15014 16:0.0434325 18:0.0526316 19:0.0909091 20:0.166667 21:0.0555556 22:0.166667 26:0.333333 28:0.333333 29:0.666667 30:0.5 31:0.304762 35:0.222151 36:0.472813 37:0.358974 38:0.70439 39:0.478134 40:0.407609 41:0.499619 
32768.0 1:0.294746 2:0.0925926 3:0.128951 4:0.5 6:0.333333 8:0.222222 9:1.0 10:0.999997 11:0.159204 12:0.0582348 13:0.0201549 14:0.404136 15:0.0748996 16:0.0504546 18:0.0877193 20:0.277778 21:0.222222 22:0.0833333 26:0.333333 28:0.5 29:0.5 30:0.2 31:0.474074 35:0.544706 36:0.827423 37:0.717949 38:0.517147 39:0.513848 40:0.362319 41:0.467631 
32768.0 1:0.761908 2:0.203704 3:0.166667 4:0.416667 6:0.333333 8:0.111111 9:1.0 10:0.999997 11:0.154229 12:0.0704413 13:0.0314791 14:0.285668 15:0.146469 16:0.0536583 18:0.263158 19:0.363636 20:0.5 21:0.5 22:0.333333 26:0.5 28:0.416667 29:0.583333 30:0.2 31:0.224561 35:0.786622 36:0.945626 37:0.897436 38:0.580247 39:0.427114 40:0.445652 41:0.446306 
32768.0 1:0.467162 2:0.111111 3:0.175185 4:0.285714 6:0.571429 8:0.190476 9:1.0 11:0.240938 12:0.116128 13:0.059892 14:0.454722 15:0.171509 16:0.137228 18:0.122807 19:0.0909091 20:0.277778 21:0.222222 22:0.166667 26:0.428571 28:0.285714 29:0.714286 30:0.4 31:0.387879 35:0.540907 36:0.825011 37:0.769231 38:0.541152 39:0.437318 40:0.393116 41:0.440975 
32768.0 1:0.294746 2:0.148148 3:0.0859673 4:0.222222 5:0.111111 6:0.444444 8:0.185185 9:1.0 11:0.257048 12:0.267333 13:0.224277 14:0.575628 15:0.686367 16:0.775595 18:0.140351 20:0.333333 21:0.333333 22:0.0833333 26:0.222222 28:0.222222 29:0.666667 30:0.285714 31:0.444444 34:0.0666667 35:0.659338 36:0.893092 37:0.837607 38:0.580933 39:0.469388 40:0.356884 41:0.386139 
32768.0 1:0.467162 2:0.148148 3:0.136255 4:0.222222 6:0.222222 8:0.222222 9:1.0 10:0.999997 11:0.240464 12:0.124578 13:0.0476152 14:0.426438 15:0.229048 16:0.155579 18:0.157895 19:0.0909091 20:0.444444 21:0.388889 22:0.166667 26:0.222222 28:0.222222 29:0.777778 30:0.125 31:0.492308 35:0.713097 36:0.919359 37:0.837607 38:0.566529 39:0.362974 40:0.40942 41:0.371668 
32768.0 1:0.467162 2:0.166667 3:0.122629 4:0.5 6:0.2 8:0.0666667 9:1.0 11:0.18209 12:0.111272 13:0.0719846 14:0.484291 15:0.314674 16:0.240449 18:0.175439 19:0.0909091 20:0.444444 21:0.388889 22:0.166667 26:0.4 28:0.5 29:0.5 30:0.125 31:0.152381 35:0.6886 36:0.893617 37:0.753846 38:0.555556 39:0.364431 40:0.413043 41:0.402894 
32768.0 1:0.467162 2:0.185185 3:0.111481 4:0.363636 6:0.363636 8:0.181818 9:1.0 10:0.999997 11:0.169607 12:0.111522 13:0.0566768 14:0.314645 15:0.274675 16:0.17043 18:0.192982 19:0.0909091 20:0.444444 21:0.444444 22:0.166667 23:1.0 26:0.454545 28:0.363636 29:0.636364 30:0.222222 31:0.426667 35:0.748923 36:0.93195 37:0.881119 38:0.58299 39:0.427114 40:0.436594 41:0.446306 
32768.0 1:0.294746 2:0.148148 3:0.0859673 4:0.333333 6:0.444444 8:0.222222 9:1.0 10:0.999997 11:0.223881 12:0.110654 13:0.038455 14:0.472592 15:0.19141 16:0.0746394 18:0.140351 20:0.277778 21:0.333333 22:0.0833333 26:0.222222 28:0.333333 29:0.666667 30:0.285714 31:0.533333 35:0.659338 36:0.893092 37:0.837607 38:0.583676 39:0.459184 40:0.429348 41:0.469155 
32768.0 1:0.467162 2:0.12963 3:0.153287 4:0.25 6:0.25 8:0.208333 9:1.0 10:0.999997 11:0.208955 12:0.1073 13:0.047158 14:0.461092 15:0.179461 16:0.175159 18:0.140351 19:0.0909091 20:0.444444 21:0.333333 22:0.166667 26:0.375 28:0.25 29:0.75 30:0.142857 31:0.444444 35:0.66527 36:0.897606 37:0.807692 38:0.540466 39:0.384111 40:0.393116 41:0.377761 
32768.0 1:0.294746 2:0.037037 3:0.257902 6:0.666667 8:0.333333 11:0.303483 12:0.273445 13:0.174396 14:0.150352 15:0.322745 16:0.269788 18:0.0350877 20:0.0555556 21:0.0555556 22:0.0833333 26:1.0 29:1.0 30:0.5 31:0.533333 35:0.222151 36:0.472813 37:0.358974 38:0.557613 39:0.530612 40:0.429348 41:0.482102 
32768.0 1:0.467162 2:0.185185 3:0.111481 4:0.363636 6:0.181818 8:0.151515 9:1.0 10:0.999997 11:0.177748 12:0.06112 13:0.0290318 14:0.324536 15:0.20074 16:0.104827 18:0.192982 19:0.0909091 20:0.5 21:0.444444 22:0.166667 26:0.363636 28:0.363636 29:0.636364 30:0.111111 31:0.355556 35:0.732322 36:0.914366 37:0.783217 38:0.553498 39:0.379009 40:0.413043 41:0.41965 
32768.0 1:0.467162 2:0.185185 3:0.111481 4:0.363636 6:0.363636 8:0.151515 9:1.0 11:0.180461 12:0.0819362 13:0.0280269 14:0.323394 15:0.158669 16:0.093172 18:0.192982 19:0.0909091 20:0.444444 21:0.388889 22:0.166667 26:0.454545 28:0.363636 29:0.636364 30:0.25 31:0.355556 35:0.688337 36:0.896782 37:0.783217 38:0.587106 39:0.341108 40:0.445652 41:0.356436 
22256.809127931883 1:0.467162 2:0.111111 3:0.175185 4:0.285714 8:0.142857 9:1.0 11:0.253731 12:0.144296 13:0.0764185 14:0.444565 15:0.219433 16:0.203188 18:0.122807 19:0.0909091 20:0.388889 21:0.333333 22:0.166667 28:0.285714 29:0.714286 31:0.290909 35:0.679145 36:0.911854 37:0.923077 38:0.600137 39:0.325073 40:0.490942 41:0.33968 
6052.1745185977015 1:0.467162 2:0.0185185 3:0.613147 4:0.5 9:1.0 10:0.999998 11:0.0447761 12:0.00336603 13:0.00450473 14:0.127578 15:0.0290134 16:0.0080286 17:1.0 18:0.0350877 19:0.0909091 20:0.5 21:0.444444 22:0.166667 26:0.5 28:0.5 29:0.5 30:0.111111 35:0.241916 36:0.531915 37:0.538462 38:0.589849 40:0.458333 41:0.476771 
32768.0 1:0.467162 2:0.12963 3:0.153287 4:0.5 6:0.5 9:1.0 10:0.999997 11:0.201493 12:0.100331 13:0.0592651 14:0.477085 15:0.147873 16:0.196084 18:0.140351 19:0.0909091 20:0.388889 21:0.277778 22:0.166667 26:0.375 28:0.5 29:0.5 30:0.333333 35:0.604791 36:0.864362 37:0.807692 38:0.54321 39:0.392857 40:0.396739 41:0.412795 
32768.0 1:0.294746 2:0.111111 3:0.110529 4:0.285714 6:0.285714 8:0.190476 11:0.266525 12:0.21299 13:0.134449 14:0.441754 15:0.329198 16:0.203826 18:0.105263 20:0.333333 21:0.277778 22:0.0833333 26:0.285714 28:0.285714 29:0.714286 30:0.166667 31:0.426667 35:0.610026 36:0.868432 37:0.769231 38:0.473937 39:0.285714 40:0.28442 41:0.28789 
32768.0 1:0.467162 2:0.12963 3:0.153287 4:0.375 6:0.25 8:0.0833333 9:1.0 11:0.231343 12:0.120527 13:0.061644 14:0.25862 15:0.1071 16:0.159009 18:0.140351 19:0.0909091 20:0.333333 21:0.333333 22:0.166667 26:0.5 28:0.375 29:0.625 30:0.142857 31:0.177778 35:0.66527 36:0.897606 37:0.807692 38:0.510288 39:0.406706 40:0.353261 41:0.407464 
13408.4585168498 1:0.467162 2:0.0555556 3:0.306574 4:0.25 8:0.166667 9:1.0 10:0.999997 11:0.291045 12:0.0715369 13:0.0354102 14:0.467392 15:0.112952 16:0.0692862 18:0.0701754 19:0.0909091 20:0.277778 21:0.166667 22:0.166667 26:0.5 28:0.25 29:0.75 31:0.266667 35:0.483833 36:0.797872 37:0.807692 38:0.528121 39:0.470845 40:0.376812 41:0.426504 
32768.0 1:0.467162 2:0.0925926 3:0.204382 4:0.333333 6:1.0 8:0.222222 9:1.0 10:0.999997 11:0.233831 12:0.0901235 13:0.0396653 14:0.286853 15:0.135673 16:0.0548201 18:0.105263 19:0.0909091 20:0.222222 21:0.111111 22:0.166667 26:0.333333 28:0.333333 29:0.666667 30:1.0 31:0.426667 35:0.383428 36:0.70922 37:0.717949 38:0.48834 39:0.300292 40:0.324275 41:0.313785 
32768.0 1:0.467162 2:0.12963 3:0.153287 4:0.25 8:0.25 9:1.0 11:0.171642 12:0.0606475 13:0.0187377 14:0.334131 15:0.120053 16:0.0612984 18:0.140351 19:0.0909091 20:0.444444 21:0.388889 22:0.166667 26:0.375 28:0.25 29:0.75 31:0.533333 35:0.725749 36:0.930851 37:0.942308 38:0.545953 39:0.477405 40:0.400362 41:0.498858 
32768.0 1:0.467162 2:0.259259 3:0.081753 4:0.4 6:0.533333 8:0.0888889 9:1.0 11:0.19602 12:0.104502 13:0.0443191 14:0.489953 15:0.2232 16:0.11495 18:0.263158 19:0.0909091 20:0.555556 21:0.5 22:0.166667 26:0.2 28:0.4 29:0.6 30:0.4 31:0.224561 35:0.771688 36:0.93617 37:0.861538 38:0.555556 39:0.395044 40:0.40942 41:0.394516 
5034.3799534953805 1:0.467162 2:0.0740741 3:0.245259 4:0.2 6:0.4 8:0.266667 9:1.0 11:0.18209 12:0.0825562 13:0.0478959 14:0.195988 15:0.184293 16:0.111153 18:0.0877193 19:0.0909091 20:0.222222 21:0.166667 22:0.166667 26:0.2 28:0.2 29:0.8 30:0.25 31:0.474074 35:0.464946 36:0.765957 37:0.646154 38:0.593278 39:0.526239 40:0.436594 41:0.476771 
32768.0 1:0.467162 2:0.185185 3:0.111481 4:0.454545 6:0.727273 8:0.0606061 9:1.0 10:0.999997 11:0.164179 12:0.0473901 13:0.0229212 14:0.328654 15:0.0659453 16:0.0654454 18:0.192982 19:0.0909091 20:0.333333 21:0.333333 22:0.166667 26:0.181818 28:0.454545 29:0.545455 30:0.571429 31:0.142222 35:0.660954 36:0.896782 37:0.881119 38:0.595336 39:0.434402 40:0.376812 41:0.424219 
32768.0 1:0.294746 2:0.0555556 3:0.193426 4:0.25 8:0.25 10:0.999997 11:0.365672 12:0.329835 13:0.176788 14:0.640077 15:0.33273 16:0.274652 18:0.0526316 20:0.222222 21:0.166667 22:0.0833333 26:0.25 28:0.25 29:0.75 31:0.457143 35:0.483833 36:0.797872 37:0.807692 38:0.433471 39:0.0772595 40:0.251812 41:0.161462 
32022.22944909389 1:0.467162 2:0.12963 3:0.153287 4:0.375 6:0.5 8:0.0833333 9:1.0 11:0.291045 12:0.164699 13:0.0617199 14:0.471725 15:0.238512 16:0.152038 18:0.140351 19:0.0909091 20:0.388889 21:0.277778 22:0.166667 26:0.25 28:0.375 29:0.625 30:0.333333 31:0.177778 35:0.604791 36:0.864362 37:0.807692 38:0.530864 39:0.325073 40:0.380435 41:0.33968 
10629.972658142857 1:0.761908 2:0.037037 3:0.666667 6:0.666667 8:0.555556 11:0.58209 12:0.387979 13:0.141044 15:0.374993 16:0.0261188 18:0.105263 19:0.363636 20:0.222222 22:0.333333 29:1.0 30:1.0 31:0.533333 38:0.455418 39:0.48688 40:0.280797 41:0.508759 
20333.626765732406 1:0.467162 2:0.111111 3:0.175185 4:0.285714 8:0.142857 11:0.211087 12:0.145758 13:0.0779225 14:0.340722 15:0.352406 16:0.238217 18:0.122807 19:0.0909091 20:0.333333 21:0.333333 22:0.166667 23:1.0 26:0.428571 28:0.285714 29:0.714286 31:0.290909 35:0.679145 36:0.911854 37:0.923077 38:0.601509 39:0.411079 40:0.445652 41:0.429551 
12972.456286274331 1:0.467162 2:0.037037 3:0.408765 4:0.333333 11:0.442786 12:0.227738 13:0.0922239 14:0.603658 15:0.104525 16:0.198656 18:0.0526316 19:0.0909091 20:0.166667 21:0.111111 22:0.166667 28:0.333333 29:0.666667 35:0.383428 36:0.70922 37:0.717949 38:0.452675 39:0.443149 40:0.307971 41:0.231531 
32768.0 1:0.467162 2:0.166667 3:0.122629 4:0.4 6:0.4 8:0.1 9:1.0 10:0.999997 11:0.137313 12:0.0985167 13:0.0572293 14:0.262156 15:0.239678 16:0.126129 18:0.175439 19:0.0909091 20:0.444444 21:0.388889 22:0.166667 23:1.0 26:0.4 28:0.4 29:0.6 30:0.25 31:0.228571 35:0.706862 36:0.914894 37:0.861538 38:0.552812 39:0.346939 40:0.40942 41:0.397563 
32768.0 1:0.467162 2:0.148148 3:0.136255 4:0.444444 6:0.222222 8:0.0740741 9:1.0 11:0.247098 12:0.14318 13:0.0868834 14:0.405423 15:0.167038 16:0.225981 17:1.0 18:0.157895 19:0.0909091 20:0.444444 21:0.5 22:0.75 26:0.222222 28:0.444444 29:0.555556 30:0.2 31:0.164103 35:0.713097 36:0.919359 37:0.837607 38:0.589849 39:0.345481 40:0.445652 41:0.361005 
32768.0 1:0.467162 2:0.111111 3:0.175185 4:0.428571 6:0.285714 8:0.0952381 9:1.0 10:0.999997 11:0.270789 12:0.151737 13:0.071357 14:0.528064 15:0.205419 16:0.13731 18:0.122807 19:0.0909091 20:0.388889 21:0.277778 22:0.166667 26:0.428571 28:0.428571 29:0.571429 30:0.166667 31:0.193939 35:0.610026 36:0.868432 37:0.769231 38:0.534979 39:0.430029 40:0.349638 41:0.370906 
32768.0 1:0.761908 2:0.240741 3:0.142857 4:0.357143 6:0.571429 8:0.238095 9:1.0 10:0.999997 11:0.24307 12:0.152818 13:0.0611385 14:0.483166 15:0.247964 16:0.148535 18:0.298246 19:0.363636 20:0.611111 21:0.444444 22:0.333333 26:0.428571 28:0.357143 29:0.642857 30:0.444444 31:0.507937 35:0.73522 36:0.92271 37:0.846154 38:0.552812 39:0.317055 40:0.40942 41:0.353389 
32768.0 1:0.467162 2:0.037037 3:0.408765 4:0.333333 8:0.444444 11:0.323383 12:0.288593 13:0.417496 14:0.599147 15:0.545842 16:0.870646 18:0.0526316 19:0.0909091 20:0.222222 21:0.111111 22:0.166667 26:0.666667 28:0.333333 29:0.666667 31:0.609524 35:0.383428 36:0.70922 37:0.717949 38:0.548011 39:0.327988 40:0.257246 41:0.26428 
158.40939258240937 1:0.467162 2:0.12963 3:0.153287 4:0.25 6:0.25 8:0.166667 9:1.0 11:0.212687 12:0.0709228 13:0.0252569 14:0.434909 15:0.111906 16:0.0729352 18:0.140351 19:0.0909091 20:0.388889 21:0.333333 22:0.166667 26:0.125 28:0.25 29:0.75 30:0.142857 31:0.355556 35:0.66527 36:0.897606 37:0.807692 38:0.532236 39:0.392128 40:0.382246 41:0.409749 
32768.0 1:0.294746 2:0.0740741 3:0.154741 4:0.2 8:0.4 9:1.0 11:0.146269 12:0.0628916 13:0.0185797 14:0.169251 15:0.155714 16:0.0527777 18:0.0701754 20:0.222222 21:0.222222 22:0.0833333 28:0.2 29:0.8 31:0.8 35:0.561712 36:0.851064 37:0.861538 38:0.800412 39:0.415452 40:0.608696 41:0.434882 
32768.0 1:0.467162 2:0.0740741 3:0.245259 4:0.6 6:0.4 11:0.235821 12:0.241291 13:0.176523 14:0.664874 15:0.389579 16:0.479141 18:0.0877193 19:0.0909091 20:0.277778 21:0.166667 22:0.166667 26:0.2 28:0.6 29:0.4 30:0.25 35:0.464946 36:0.765957 37:0.646154 38:0.625514 39:0.397959 40:0.407609 41:0.387662 
32768.0 1:0.761908 2:0.12963 3:0.25 4:0.5 6:0.5 8:0.166667 9:1.0 11:0.0970149 12:0.0738754 13:0.0540365 14:0.161846 15:0.163865 16:0.158636 18:0.192982 19:0.363636 20:0.333333 21:0.277778 22:0.333333 26:0.25 28:0.5 29:0.5 30:0.333333 31:0.284444 35:0.604791 36:0.864362 37:0.807692 38:0.567901 39:0.46137 40:0.429348 41:0.473724 
32768.0 1:0.467162 2:0.0925926 3:0.204382 4:0.333333 8:0.166667 10:0.999997 11:0.268657 12:0.239697 13:0.183655 14:0.537178 15:0.495616 16:0.509092 18:0.105263 19:0.0909091 20:0.333333 21:0.277778 22:0.166667 26:0.333333 28:0.333333 29:0.666667 31:0.32 35:0.625345 36:0.886525 37:0.897436 38:0.540466 39:0.547376 40:0.393116 41:0.463823 
18851.16457534173 1:0.467162 2:0.148148 3:0.136255 4:0.444444 6:0.222222 9:1.0 11:0.217247 12:0.113736 13:0.0677487 14:0.447813 15:0.236529 16:0.276791 18:0.157895 19:0.0909091 20:0.444444 21:0.388889 22:0.166667 26:0.444444 28:0.444444 29:0.555556 30:0.125 35:0.713097 36:0.919359 37:0.837607 38:0.587106 39:0.516035 40:0.393116 41:0.536938 
32768.0 1:0.467162 2:0.12963 3:0.153287 4:0.375 5:0.125 6:0.25 8:0.0833333 9:1.0 11:0.287313 12:0.181706 13:0.137895 14:0.550987 15:0.452714 16:0.43806 18:0.140351 19:0.0909091 20:0.388889 21:0.333333 22:0.166667 24:1.0 26:0.5 28:0.375 29:0.5 30:0.142857 31:0.177778 34:0.0666667 35:0.66527 36:0.897606 37:0.807692 38:0.536351 39:0.375364 40:0.387681 41:0.367098 
32768.0 1:0.294746 2:0.259259 3:0.0515804 4:0.4 6:0.533333 8:0.133333 9:1.0 11:0.18209 12:0.097194 13:0.0585588 14:0.372532 15:0.195652 16:0.152593 18:0.245614 20:0.5 21:0.5 22:0.0833333 25:0.2 26:0.4 28:0.4 29:0.533333 30:0.4 31:0.355556 33:0.25 35:0.816119 36:0.955083 37:0.933333 38:0.641975 39:0.453353 40:0.505435 41:0.468393 
32768.0 1:0.761908 2:0.12963 3:0.25 4:0.25 6:0.25 8:0.208333 9:1.0 11:0.246269 12:0.113795 13:0.0722731 14:0.324869 15:0.181778 16:0.34374 18:0.192982 19:0.363636 20:0.333333 21:0.333333 22:0.333333 26:0.375 28:0.25 29:0.75 30:0.142857 31:0.355556 35:0.66527 36:0.897606 37:0.807692 38:0.561043 39:0.413265 40:0.42029 41:0.325971 
695.9975521293921 1:0.467162 2:0.0740741 3:0.245259 4:0.2 6:0.4 8:0.266667 9:1.0 11:0.18209 12:0.0825562 13:0.0478959 14:0.195988 15:0.184293 16:0.111153 18:0.0877193 19:0.0909091 20:0.222222 21:0.166667 22:0.166667 26:0.2 28:0.2 29:0.8 30:0.25 31:0.474074 35:0.464946 36:0.765957 37:0.646154 38:0.593278 39:0.526239 40:0.436594 41:0.476771 
32768.0 1:0.467162 2:0.0925926 3:0.204382 4:0.333333 6:0.333333 8:0.166667 9:1.0 11:0.208955 12:0.120797 13:0.0767762 14:0.411343 15:0.120328 16:0.125647 18:0.105263 19:0.0909091 20:0.333333 21:0.222222 22:0.166667 26:0.166667 28:0.333333 29:0.666667 30:0.2 31:0.32 35:0.544706 36:0.827423 37:0.717949 38:0.517147 39:0.347668 40:0.362319 41:0.368621 
32768.0 1:0.294746 2:0.037037 3:0.257902 5:0.333333 8:0.222222 10:0.999997 11:0.512438 12:0.437672 13:0.237199 14:0.542101 15:0.458377 16:0.381425 18:0.0350877 20:0.166667 21:0.111111 22:0.0833333 24:1.0 26:0.333333 29:0.666667 31:0.355556 34:0.0666667 35:0.383428 36:0.70922 37:0.717949 38:0.505487 40:0.219203 
32768.0 1:0.294746 2:0.037037 3:0.257902 4:0.333333 8:0.444444 9:1.0 10:0.999997 11:0.20398 12:0.101512 13:0.0516374 14:0.442964 15:0.170651 16:0.0576933 18:0.0350877 20:0.166667 21:0.111111 22:0.0833333 26:0.333333 28:0.333333 29:0.666667 31:0.711111 35:0.383428 36:0.70922 37:0.717949 38:0.708505 39:0.779883 40:0.365942 41:0.635948 
32768.0 1:0.467162 2:0.148148 3:0.136255 4:0.333333 8:0.185185 9:1.0 11:0.200663 12:0.126279 13:0.0498872 14:0.4695 15:0.217076 16:0.103963 18:0.157895 19:0.0909091 20:0.555556 21:0.444444 22:0.166667 26:0.333333 28:0.333333 29:0.666667 31:0.410256 35:0.766857 36:0.945626 37:0.957265 38:0.526063 39:0.511662 40:0.36413 41:0.511043 
32768.0 1:0.467162 2:0.12963 3:0.153287 4:0.25 5:0.125 6:0.25 8:0.25 9:1.0 10:0.999997 11:0.279851 12:0.215485 13:0.115711 14:0.588482 15:0.525148 16:0.397418 18:0.140351 19:0.0909091 20:0.444444 21:0.333333 22:0.166667 24:1.0 26:0.5 28:0.25 29:0.625 30:0.142857 31:0.533333 34:0.0666667 35:0.66527 36:0.897606 37:0.807692 38:0.555556 39:0.505102 40:0.413043 41:0.492003 
32768.0 1:0.467162 2:0.12963 3:0.153287 4:0.25 8:0.208333 9:1.0 11:0.272388 12:0.140015 13:0.0703447 14:0.356501 15:0.160248 16:0.161127 18:0.140351 19:0.0909091 20:0.444444 21:0.388889 22:0.166667 26:0.25 28:0.25 29:0.75 31:0.444444 35:0.725749 36:0.930851 37:0.942308 38:0.493827 39:0.368076 40:0.331522 41:0.384615 
14267.780131013122 1:0.467162 2:0.111111 3:0.175185 4:0.428571 8:0.0952381 9:1.0 11:0.240938 12:0.138184 13:0.0628826 14:0.382516 15:0.13464 16:0.0826531 18:0.122807 19:0.0909091 20:0.388889 21:0.333333 22:0.166667 26:0.285714 28:0.428571 29:0.571429 31:0.193939 35:0.679145 36:0.911854 37:0.923077 38:0.744856 39:0.469388 40:0.469203 41:0.49048 
32768.0 1:0.467162 2:0.0740741 3:0.245259 4:0.2 8:0.266667 9:1.0 11:0.313433 12:0.11852 13:0.0652184 14:0.264551 15:0.0960337 16:0.138289 18:0.0877193 19:0.0909091 20:0.333333 21:0.222222 22:0.166667 28:0.2 29:0.8 31:0.474074 35:0.561712 36:0.851064 37:0.861538 38:0.512346 39:0.269679 40:0.351449 41:0.281036 
32768.0 1:0.467162 2:0.351852 3:0.0613147 4:0.4 6:0.5 8:0.116667 9:1.0 11:0.202985 12:0.103588 13:0.0370866 14:0.355791 15:0.144106 16:0.0769654 18:0.350877 19:0.0909091 20:0.777778 21:0.722222 22:0.166667 26:0.4 28:0.4 29:0.6 30:0.357143 31:0.311111 35:0.891264 36:0.973404 37:0.915385 38:0.533608 39:0.412536 40:0.384058 41:0.428027 
32768.0 1:0.467162 2:0.0740741 3:0.245259 4:0.2 6:0.4 8:0.266667 9:1.0 11:0.271642 12:0.178577 13:0.11815 14:0.41261 15:0.430778 16:0.289596 18:0.0877193 19:0.0909091 20:0.222222 21:0.166667 22:0.166667 26:0.2 28:0.2 29:0.8 30:0.25 31:0.474074 35:0.464946 36:0.765957 37:0.646154 38:0.593278 39:0.526239 40:0.40942 41:0.45773 
32768.0 1:0.467162 2:0.166667 3:0.122629 4:0.3 6:0.4 8:0.2 9:1.0 11:0.149254 12:0.0507803 13:0.0243984 14:0.295432 15:0.105837 16:0.0696423 18:0.175439 19:0.0909091 20:0.388889 21:0.388889 22:0.166667 26:0.2 28:0.3 29:0.7 30:0.25 31:0.457143 35:0.706862 36:0.914894 37:0.861538 38:0.565158 39:0.422012 40:0.425725 41:0.426504 
32768.0 1:0.467162 2:0.037037 3:0.408765 4:0.333333 8:0.222222 10:0.999997 11:0.353234 12:0.257767 13:0.205777 14:0.534542 15:0.469682 16:0.280399 18:0.0526316 19:0.0909091 20:0.222222 21:0.111111 22:0.166667 26:0.333333 28:0.333333 29:0.666667 31:0.304762 35:0.383428 36:0.70922 37:0.717949 38:0.457476 39:0.473761 40:0.346014 41:0.464585 
32768.0 1:0.467162 2:0.12963 3:0.153287 4:0.5 6:0.25 9:1.0 11:0.216418 12:0.125252 13:0.0775624 14:0.442804 15:0.102098 16:0.210537 18:0.140351 19:0.0909091 20:0.388889 21:0.333333 22:0.166667 26:0.5 28:0.5 29:0.5 30:0.142857 35:0.66527 36:0.897606 37:0.807692 38:0.578875 39:0.424927 40:0.443841 41:0.444021 
32768.0 1:0.467162 2:0.259259 3:0.081753 4:0.466667 6:0.666667 8:0.0888889 9:1.0 10:0.999997 11:0.150249 12:0.0548087 13:0.0191925 14:0.266458 15:0.149691 16:0.0568535 18:0.263158 19:0.0909091 20:0.388889 21:0.444444 22:0.166667 26:0.333333 28:0.466667 29:0.533333 30:0.555556 31:0.224561 35:0.739433 36:0.926714 37:0.861538 38:0.564472 39:0.438776 40:0.413043 41:0.458492 
32768.0 1:0.467162 2:0.203704 3:0.102191 4:0.5 6:0.166667 8:0.111111 9:1.0 10:0.999997 11:0.199005 12:0.0988958 13:0.0366385 14:0.397367 15:0.164164 16:0.0696821 18:0.210526 19:0.0909091 20:0.555556 21:0.444444 22:0.166667 26:0.416667 28:0.5 29:0.5 30:0.111111 31:0.266667 35:0.705983 36:0.886525 37:0.717949 38:0.540466 39:0.408163 40:0.393116 41:0.426504 
32768.0 1:0.467162 2:0.240741 3:0.0875925 4:0.428571 6:0.571429 8:0.0952381 9:1.0 10:0.999997 11:0.191898 12:0.110299 13:0.0471399 14:0.426864 15:0.152777 16:0.0925181 18:0.245614 19:0.0909091 20:0.444444 21:0.444444 22:0.166667 26:0.357143 28:0.428571 29:0.571429 30:0.444444 31:0.237037 35:0.73522 36:0.92271 37:0.846154 38:0.532236 39:0.413265 40:0.382246 41:0.418888 
11535.422045135923 1:0.294746 2:0.0925926 3:0.128951 4:0.5 6:0.333333 8:0.111111 9:1.0 11:0.218905 12:0.102575 13:0.0316748 14:0.56507 15:0.170697 16:0.0521981 18:0.0877193 20:0.277778 21:0.222222 22:0.0833333 23:1.0 26:0.5 28:0.5 29:0.5 30:0.2 31:0.237037 35:0.544706 36:0.827423 37:0.717949 38:0.539095 39:0.344752 40:0.391304 41:0.447829 
32768.0 1:0.294746 2:0.0925926 3:0.128951 4:0.166667 5:0.333333 7:0.333333 8:0.222222 9:1.0 10:0.999997 11:0.467662 12:0.382892 13:0.277711 14:0.670457 15:0.557266 16:0.718156 18:0.0877193 20:0.277778 21:0.277778 22:0.0833333 26:0.5 28:0.166667 29:0.5 31:0.474074 32:0.296296 34:0.133333 35:0.625345 36:0.886525 37:0.897436 38:0.478738 39:0.366618 40:0.311594 41:0.383092 
32768.0 1:0.294746 2:0.0740741 3:0.154741 4:0.2 8:0.333333 11:0.438806 12:0.359811 13:0.251287 14:0.523535 15:0.405276 16:0.337057 18:0.0701754 20:0.222222 21:0.222222 22:0.0833333 26:0.2 28:0.2 29:0.8 31:0.666667 35:0.561712 36:0.851064 37:0.861538 38:0.509602 39:0.150146 40:0.346014 41:0.185834 
32768.0 1:0.467162 2:0.12963 3:0.153287 4:0.25 8:0.208333 9:1.0 11:0.197761 12:0.0911189 13:0.074323 14:0.332127 15:0.186463 16:0.217521 18:0.140351 19:0.0909091 20:0.444444 21:0.388889 22:0.166667 26:0.25 28:0.25 29:0.75 31:0.444444 35:0.725749 36:0.930851 37:0.942308 38:0.555556 39:0.376822 40:0.413043 41:0.361005 
32768.0 1:0.761908 2:0.259259 3:0.133333 4:0.4 6:0.4 8:0.155556 9:1.0 11:0.20995 12:0.142037 13:0.0916813 14:0.351604 15:0.207348 16:0.213311 18:0.315789 19:0.363636 20:0.666667 21:0.555556 22:0.333333 26:0.2 28:0.4 29:0.6 30:0.272727 31:0.339394 35:0.803944 36:0.945626 37:0.861538 38:0.517833 39:0.386297 40:0.365942 41:0.404417 
32768.0 1:0.467162 2:0.111111 3:0.175185 4:0.285714 6:0.285714 8:0.285714 9:1.0 11:0.172708 12:0.032553 13:0.0112148 14:0.310099 15:0.0630731 16:0.0266412 18:0.122807 19:0.0909091 20:0.388889 21:0.277778 22:0.166667 26:0.285714 28:0.285714 29:0.714286 30:0.166667 31:0.581818 35:0.610026 36:0.868432 37:0.769231 38:0.558985 39:0.498542 40:0.416667 41:0.492765 
32768.0 1:0.467162 2:0.0740741 3:0.245259 5:0.2 6:0.4 8:0.4 11:0.6 12:0.577008 13:0.224838 14:0.444878 15:0.400807 16:0.368033 18:0.0877193 19:0.0909091 20:0.222222 21:0.111111 22:0.166667 26:0.2 29:0.8 30:0.333333 31:0.711111 34:0.0666667 35:0.331655 36:0.595745 37:0.430769 38:0.416324 40:0.286232 
32768.0 1:0.294746 2:0.0555556 3:0.193426 4:0.25 8:0.166667 10:0.999997 11:0.268657 12:0.170392 13:0.131943 14:0.378725 15:0.280518 16:0.180687 18:0.0526316 20:0.222222 21:0.166667 22:0.0833333 26:0.5 28:0.25 29:0.75 31:0.304762 35:0.483833 36:0.797872 37:0.807692 38:0.561043 39:0.460641 40:0.42029 41:0.48134 
32768.0 1:0.467162 2:0.0925926 3:0.204382 4:0.166667 8:0.222222 11:0.253731 12:0.162404 13:0.119333 14:0.30592 15:0.271978 16:0.315996 18:0.105263 19:0.0909091 20:0.333333 21:0.277778 22:0.166667 26:0.166667 28:0.166667 29:0.833333 31:0.426667 35:0.625345 36:0.886525 37:0.897436 38:0.532236 39:0.265306 40:0.382246 41:0.303123 
32768.0 1:0.294746 2:0.222222 3:0.0595158 4:0.538462 6:0.769231 8:0.0512821 9:1.0 10:0.999997 11:0.161883 12:0.0820754 13:0.0327931 14:0.30176 15:0.150484 16:0.0649378 18:0.210526 20:0.444444 21:0.388889 22:0.0833333 26:0.461538 28:0.538462 29:0.461538 30:0.625 31:0.133333 35:0.709107 36:0.919048 37:0.911243 38:0.613169 39:0.450437 40:0.472826 41:0.470678 
32768.0 1:0.467162 2:0.0185185 3:0.613147 4:0.5 9:1.0 10:0.999998 11:0.0895522 12:0.0483645 13:0.0148504 14:0.0956832 15:0.0495618 16:0.00290691 17:1.0 18:0.0350877 19:0.0909091 20:0.5 21:0.444444 22:0.166667 28:0.5 29:0.5 30:0.333333 35:0.241916 36:0.531915 37:0.538462 38:0.492455 40:0.32971 41:0.41051 
32768.0 1:0.467162 2:0.111111 3:0.175185 4:0.142857 8:0.238095 11:0.245203 12:0.235976 13:0.137093 14:0.405898 15:0.279807 16:0.248729 18:0.122807 19:0.0909091 20:0.333333 21:0.277778 22:0.166667 25:0.428571 26:0.428571 28:0.142857 29:0.714286 31:0.484848 33:0.25 35:0.679145 36:0.911854 37:0.923077 38:0.633745 39:0.524781 40:0.481884 41:0.520183 
32768.0 1:0.294746 2:0.148148 3:0.0859673 4:0.333333 6:0.444444 8:0.148148 9:1.0 10:0.999997 11:0.131012 12:0.015094 13:0.00527408 14:0.237621 15:0.0782244 16:0.0137717 18:0.140351 20:0.333333 21:0.333333 22:0.0833333 23:1.0 26:0.222222 28:0.333333 29:0.666667 30:0.285714 31:0.355556 35:0.659338 36:0.893092 37:0.837607 38:0.569273 39:0.548105 40:0.416667 41:0.545316 
32768.0 1:0.467162 2:0.185185 3:0.111481 4:0.363636 6:0.363636 8:0.181818 9:1.0 10:0.999997 11:0.204885 12:0.129415 13:0.0536657 14:0.437122 15:0.213125 16:0.145917 18:0.192982 19:0.0909091 20:0.555556 21:0.444444 22:0.166667 26:0.363636 28:0.363636 29:0.636364 30:0.222222 31:0.426667 35:0.748923 36:0.93195 37:0.881119 38:0.576132 39:0.325073 40:0.436594 41:0.366337 
32768.0 1:0.761908 2:0.0555556 3:0.5 4:0.5 11:0.253731 12:0.137653 13:0.11031 14:0.46875 15:0.11701 16:0.274534 18:0.122807 19:0.363636 20:0.333333 21:0.166667 22:0.333333 26:0.5 28:0.5 29:0.5 35:0.483833 36:0.797872 37:0.807692 38:0.567901 39:0.366618 40:0.429348 41:0.383092 
32768.0 1:0.294746 2:0.296296 3:0.0455121 4:0.529412 6:0.470588 8:0.0784314 9:1.0 10:0.999997 11:0.197542 12:0.157081 13:0.103734 14:0.455744 15:0.318146 16:0.244941 18:0.280702 20:0.444444 21:0.5 22:0.0833333 26:0.235294 28:0.529412 29:0.470588 30:0.4 31:0.213333 35:0.757372 36:0.92763 37:0.886878 38:0.552126 39:0.364431 40:0.373188 41:0.385377 
8945.092824004492 1:0.467162 2:0.0185185 3:0.613147 4:0.5 9:1.0 10:0.999998 11:0.0447761 12:0.00336603 13:0.00450473 14:0.127578 15:0.0290134 16:0.0080286 17:1.0 18:0.0350877 19:0.0909091 20:0.444444 21:0.277778 22:0.333333 26:0.5 28:0.5 29:0.5 30:0.333333 35:0.241916 36:0.531915 37:0.538462 38:0.589849 40:0.458333 41:0.476771 
32768.0 1:0.467162 2:0.296296 3:0.072135 4:0.352941 6:0.352941 8:0.0588235 9:1.0 11:0.227392 12:0.165526 13:0.109138 14:0.4955 15:0.264296 16:0.259056 18:0.298246 19:0.0909091 20:0.5 21:0.5 22:0.166667 25:0.352941 26:0.235294 28:0.352941 29:0.529412 30:0.3 31:0.152381 33:0.5 35:0.796575 36:0.942354 37:0.886878 38:0.633745 39:0.516035 40:0.516304 41:0.536177 
32768.0 1:0.467162 2:0.185185 3:0.111481 4:0.363636 6:0.363636 8:0.181818 9:1.0 10:0.999997 11:0.218453 12:0.139424 13:0.0636598 14:0.433336 15:0.217064 16:0.0861825 18:0.192982 19:0.0909091 20:0.5 21:0.388889 22:0.166667 26:0.454545 28:0.363636 29:0.636364 30:0.25 31:0.426667 35:0.688337 36:0.896782 37:0.783217 38:0.553498 39:0.390671 40:0.407609 41:0.408225 
32768.0 1:0.467162 2:0.12963 3:0.153287 4:0.25 8:0.208333 9:1.0 11:0.257463 12:0.154424 13:0.103047 14:0.423653 15:0.170599 16:0.298178 18:0.140351 19:0.0909091 20:0.388889 21:0.388889 22:0.166667 26:0.25 28:0.25 29:0.75 31:0.444444 35:0.725749 36:0.930851 37:0.942308 38:0.491084 39:0.303207 40:0.327899 41:0.316832 
32768.0 1:0.467162 2:0.166667 3:0.122629 4:0.3 6:0.2 8:0.166667 9:1.0 11:0.214925 12:0.100063 13:0.0421015 14:0.411475 15:0.133564 16:0.131087 18:0.175439 19:0.0909091 20:0.444444 21:0.444444 22:0.166667 26:0.2 28:0.3 29:0.7 30:0.111111 31:0.380952 35:0.755245 36:0.93617 37:0.861538 38:0.529492 39:0.356414 40:0.378623 41:0.37243 
32768.0 1:0.761908 2:0.0740741 3:0.4 4:0.4 6:0.4 8:0.133333 11:0.2 12:0.133401 13:0.0664818 14:0.414185 15:0.15078 16:0.101839 18:0.140351 19:0.363636 20:0.388889 21:0.166667 22:0.333333 26:0.6 28:0.4 29:0.6 30:0.25 31:0.177778 35:0.464946 36:0.765957 37:0.646154 38:0.57476 39:0.457726 40:0.42029 41:0.451637 
32768.0 1:0.467162 2:0.203704 3:0.102191 4:0.333333 6:0.166667 8:0.166667 9:1.0 11:0.206468 12:0.102739 13:0.0417371 14:0.30309 15:0.135203 16:0.127861 18:0.210526 19:0.0909091 20:0.555556 21:0.555556 22:0.166667 26:0.25 28:0.333333 29:0.666667 30:0.0909091 31:0.4 35:0.826942 36:0.960402 37:0.897436 38:0.533608 39:0.346939 40:0.384058 41:0.368621 
32768.0 1:0.294746 2:0.0740741 3:0.154741 4:0.6 6:0.4 8:0.133333 9:1.0 10:0.999997 11:0.140299 12:0.0581083 13:0.0618252 14:0.363988 15:0.0869253 16:0.172645 18:0.0701754 20:0.222222 21:0.166667 22:0.0833333 26:0.8 28:0.6 29:0.4 30:0.25 31:0.266667 35:0.464946 36:0.765957 37:0.646154 38:0.639232 39:0.421283 40:0.516304 41:0.440213 
32768.0 2:0.0555556 4:0.25 8:0.333333 9:1.0 11:0.201493 12:0.0498526 13:0.0273827 14:0.19335 15:0.0774084 16:0.0359324 18:0.0526316 20:0.111111 21:0.166667 26:0.5 28:0.25 29:0.75 31:0.609524 35:0.483833 36:0.797872 37:0.807692 38:0.555556 39:0.432945 40:0.413043 41:0.405179 
32768.0 1:0.467162 2:0.0185185 3:0.613147 4:0.5 9:1.0 10:0.999997 11:0.223881 12:0.07671 13:0.0234347 14:0.255155 15:0.110348 16:0.0328988 17:1.0 18:0.0350877 19:0.0909091 20:0.333333 21:0.333333 22:0.166667 28:0.5 29:0.5 30:0.428571 35:0.241916 36:0.531915 37:0.538462 38:0.824417 40:0.768116 41:0.416603 
19035.208958955678 1:0.467162 2:0.0185185 3:0.613147 4:0.5 9:1.0 10:0.999997 11:0.223881 12:0.07671 13:0.0234347 14:0.255155 15:0.110348 16:0.0328988 17:1.0 18:0.0350877 19:0.0909091 20:0.333333 21:0.222222 22:0.166667 28:0.5 29:0.5 30:0.6 35:0.241916 36:0.531915 37:0.538462 38:0.824417 40:0.768116 41:0.416603 
32768.0 1:0.467162 2:0.12963 3:0.153287 4:0.25 6:0.25 8:0.166667 9:1.0 10:0.999997 11:0.216418 12:0.0836783 13:0.0524017 14:0.337162 15:0.199375 16:0.176473 18:0.140351 19:0.0909091 20:0.388889 21:0.333333 22:0.166667 26:0.5 28:0.25 29:0.75 30:0.142857 31:0.355556 35:0.66527 36:0.897606 37:0.807692 38:0.62963 39:0.517493 40:0.51087 41:0.517898 
32768.0 1:0.467162 2:0.166667 3:0.122629 4:0.3 5:0.1 6:0.4 8:0.133333 9:1.0 11:0.226866 12:0.20085 13:0.125693 14:0.543105 15:0.441039 16:0.361493 18:0.175439 19:0.0909091 20:0.444444 21:0.388889 22:0.166667 26:0.4 28:0.3 29:0.6 30:0.25 31:0.304762 34:0.0666667 35:0.706862 36:0.914894 37:0.861538 38:0.567901 39:0.48105 40:0.429348 41:0.487433 
32768.0 1:0.467162 2:0.111111 3:0.175185 4:0.285714 8:0.190476 9:1.0 11:0.198294 12:0.130478 13:0.0585326 14:0.32244 15:0.242586 16:0.103114 18:0.122807 19:0.0909091 20:0.388889 21:0.333333 22:0.166667 23:1.0 26:0.428571 28:0.285714 29:0.714286 31:0.387879 35:0.679145 36:0.911854 37:0.923077 38:0.539781 39:0.425656 40:0.393116 41:0.428789 
32768.0 1:0.467162 2:0.12963 3:0.153287 4:0.375 8:0.125 9:1.0 10:0.999997 11:0.268657 12:0.133519 13:0.0759528 14:0.378725 15:0.199329 16:0.157907 18:0.140351 19:0.0909091 20:0.388889 21:0.388889 22:0.166667 26:0.375 28:0.375 29:0.625 31:0.266667 35:0.725749 36:0.930851 37:0.942308 38:0.659808 39:0.323615 40:0.550725 41:0.376238 
32768.0 1:0.294746 2:0.0185185 3:0.386853 8:0.333333 11:0.328358 12:0.232256 13:0.382659 14:0.414627 15:0.30804 16:0.176075 18:0.0175439 20:0.111111 21:0.0555556 22:0.0833333 29:1.0 31:0.426667 35:0.241916 36:0.531915 37:0.538462 38:0.495199 40:0.333333 41:0.101295 
32768.0 1:0.294746 2:0.12963 3:0.0967132 4:0.375 6:0.25 8:0.166667 10:0.999997 11:0.190299 12:0.139424 13:0.108265 14:0.388585 15:0.336842 16:0.356781 18:0.122807 20:0.388889 21:0.333333 22:0.0833333 26:0.125 28:0.375 29:0.625 30:0.142857 31:0.387879 35:0.66527 36:0.897606 37:0.807692 38:0.654321 39:0.367347 40:0.543478 41:0.383854 
12224.591385807651 1:0.467162 2:0.0740741 3:0.245259 4:0.2 6:0.4 8:0.266667 9:1.0 11:0.18209 12:0.0825562 13:0.0478959 14:0.195988 15:0.184293 16:0.111153 18:0.0877193 19:0.0909091 20:0.222222 21:0.166667 22:0.166667 26:0.2 28:0.2 29:0.8 30:0.25 31:0.474074 35:0.464946 36:0.765957 37:0.646154 38:0.593278 39:0.526239 40:0.436594 41:0.476771 
32768.0 1:0.294746 2:0.0925926 3:0.128951 4:0.5 6:0.333333 8:0.222222 9:1.0 10:0.999997 11:0.159204 12:0.0582348 13:0.0201549 14:0.404136 15:0.0748996 16:0.0504546 18:0.0877193 20:0.277778 21:0.222222 22:0.0833333 26:0.333333 28:0.5 29:0.5 30:0.2 31:0.474074 35:0.544706 36:0.827423 37:0.717949 38:0.517147 39:0.513848 40:0.362319 41:0.467631 
32768.0 1:0.68438 2:0.037037 3:0.59883 4:0.333333 8:0.222222 9:1.0 10:0.999997 11:0.323383 12:0.125163 13:0.0748258 14:0.64283 15:0.168776 16:0.199086 18:0.0877193 19:0.272727 20:0.222222 21:0.111111 22:0.25 26:0.333333 28:0.333333 29:0.666667 31:0.237037 35:0.383428 36:0.70922 37:0.717949 38:0.61454 39:0.380466 40:0.358696 41:0.319878 
32768.0 1:0.294746 2:0.111111 3:0.110529 4:0.285714 6:0.285714 8:0.238095 9:1.0 11:0.304904 12:0.137254 13:0.0437646 14:0.45836 15:0.192318 16:0.0970142 18:0.105263 20:0.333333 21:0.277778 22:0.0833333 28:0.285714 29:0.714286 30:0.166667 31:0.533333 35:0.610026 36:0.868432 37:0.769231 38:0.530178 39:0.491254 40:0.322464 41:0.440213 
32768.0 1:0.467162 2:0.037037 3:0.408765 4:0.333333 8:0.222222 10:0.999997 11:0.273632 12:0.234913 13:0.201606 14:0.131074 15:0.342594 16:0.146249 18:0.0526316 19:0.0909091 20:0.166667 21:0.111111 22:0.166667 28:0.333333 29:0.666667 31:0.304762 35:0.383428 36:0.70922 37:0.717949 38:0.536351 39:0.249271 40:0.324275 41:0.260472 
1089.3873802184921 1:0.294746 2:0.0555556 3:0.193426 4:0.5 6:0.5 9:1.0 10:0.999997 11:0.179104 12:0.0275306 13:0.0457964 14:0.362251 15:0.0390644 16:0.144263 18:0.0526316 20:0.166667 21:0.111111 22:0.0833333 26:0.75 28:0.5 29:0.5 30:0.333333 35:0.362874 36:0.664894 37:0.538462 38:0.633745 39:0.524781 40:0.516304 41:0.539223 
32768.0 1:0.736866 2:0.185185 3:0.175842 4:0.363636 5:0.0909091 6:0.181818 8:0.151515 9:1.0 11:0.36228 12:0.305068 13:0.0399205 14:0.5248 15:0.600672 16:0.15109 18:0.280702 19:0.545455 20:0.666667 21:0.444444 22:0.416667 25:0.272727 26:0.272727 28:0.363636 29:0.454545 30:0.111111 31:0.266667 33:0.25 34:0.0666667 35:0.792908 36:0.949534 37:0.881119 38:0.558299 39:0.553936 40:0.452899 41:0.568926 
32768.0 1:0.467162 2:0.203704 3:0.102191 4:0.416667 6:0.333333 8:0.0555556 9:1.0 11:0.176617 12:0.104211 13:0.061892 14:0.327813 15:0.272617 16:0.208083 18:0.210526 19:0.0909091 20:0.5 21:0.5 22:0.166667 26:0.416667 28:0.416667 29:0.583333 30:0.2 31:0.133333 35:0.786622 36:0.945626 37:0.897436 38:0.654321 39:0.398688 40:0.543478 41:0.415842 
32768.0 1:0.294746 2:0.037037 3:0.257902 8:0.333333 11:0.273632 12:0.206213 13:0.269147 14:0.334849 15:0.236659 16:0.55381 18:0.0350877 20:0.111111 21:0.111111 22:0.0833333 29:1.0 31:0.533333 35:0.383428 36:0.70922 37:0.717949 38:0.430727 39:0.316327 40:0.221014 41:0.254379 
32768.0 1:0.467162 2:0.111111 3:0.175185 4:0.142857 8:0.238095 11:0.313433 12:0.299621 13:0.330789 14:0.462508 15:0.366811 16:0.457329 18:0.122807 19:0.0909091 20:0.333333 21:0.277778 22:0.166667 25:0.428571 26:0.285714 28:0.142857 29:0.714286 31:0.484848 33:0.25 35:0.679145 36:0.911854 37:0.923077 38:0.548011 39:0.553936 40:0.369565 41:0.522468 
32768.0 1:0.565411 2:0.0740741 3:0.296839 4:0.6 8:0.133333 9:1.0 11:0.19403 12:0.0774186 13:0.0378539 14:0.332682 15:0.0915011 16:0.0379316 18:0.140351 19:0.363636 20:0.333333 21:0.222222 22:0.25 26:0.4 28:0.6 29:0.4 31:0.177778 35:0.561712 36:0.851064 37:0.861538 38:0.539095 39:0.40379 40:0.402174 41:0.423458 
32768.0 1:0.294746 2:0.0555556 3:0.193426 8:0.333333 10:0.999997 11:0.30597 12:0.249263 13:0.283272 14:0.38637 15:0.49629 16:0.443276 18:0.0526316 20:0.166667 21:0.166667 22:0.0833333 26:0.5 29:1.0 31:0.609524 35:0.483833 36:0.797872 37:0.807692 38:0.513032 39:0.319971 40:0.356884 41:0.350343 
32768.0 1:0.294746 2:0.166667 3:0.0773706 4:0.4 6:0.6 8:0.2 9:1.0 10:0.999997 11:0.119403 12:0.0634391 13:0.0232485 14:0.219585 15:0.11343 16:0.0519636 18:0.157895 20:0.222222 21:0.277778 22:0.0833333 23:1.0 26:0.5 28:0.4 29:0.6 30:0.5 31:0.492308 35:0.591834 36:0.851064 37:0.753846 38:0.550069 39:0.383382 40:0.405797 41:0.400609 
32768.0 1:0.294746 2:0.148148 3:0.0859673 4:0.444444 6:0.222222 8:0.0740741 9:1.0 10:0.999997 11:0.170813 12:0.0669662 13:0.0221592 14:0.238255 15:0.101664 16:0.0526952 18:0.140351 20:0.333333 21:0.388889 22:0.0833333 26:0.333333 28:0.444444 29:0.555556 30:0.125 31:0.177778 35:0.713097 36:0.919359 37:0.837607 38:0.641975 39:0.453353 40:0.505435 41:0.472201 
32768.0 1:0.467162 2:0.222222 3:0.0943303 4:0.230769 5:0.153846 6:0.307692 7:0.153846 8:0.153846 9:1.0 10:0.999997 11:0.324914 12:0.194293 13:0.0812931 14:0.594476 15:0.345964 16:0.249577 18:0.22807 19:0.0909091 20:0.666667 21:0.555556 22:0.166667 26:0.461538 28:0.230769 29:0.615385 30:0.181818 31:0.376471 32:0.156863 34:0.133333 35:0.820761 36:0.956817 37:0.911243 38:0.530178 39:0.329446 40:0.375 41:0.34425 
32768.0 1:0.294746 2:0.166667 3:0.0773706 4:0.4 6:0.4 8:0.133333 9:1.0 10:0.999997 11:0.18806 12:0.0917524 13:0.0474546 14:0.357217 15:0.113991 16:0.114189 18:0.157895 20:0.388889 21:0.388889 22:0.0833333 26:0.4 28:0.4 29:0.6 30:0.25 31:0.328205 35:0.706862 36:0.914894 37:0.861538 38:0.55144 39:0.433673 40:0.407609 41:0.432597 
32768.0 1:0.294746 2:0.111111 3:0.110529 4:0.428571 6:0.285714 8:0.238095 9:1.0 11:0.198294 12:0.0973933 13:0.0557097 14:0.30768 15:0.175246 16:0.158852 18:0.105263 20:0.277778 21:0.277778 22:0.0833333 26:0.285714 28:0.428571 29:0.571429 30:0.166667 31:0.533333 35:0.610026 36:0.868432 37:0.769231 38:0.587106 39:0.341108 40:0.463768 41:0.409749 
32768.0 1:0.467162 2:0.037037 3:0.408765 4:0.333333 9:1.0 11:0.273632 12:0.10789 13:0.0568609 14:0.394369 15:0.0504538 16:0.113992 18:0.0526316 19:0.0909091 20:0.222222 21:0.111111 22:0.166667 23:1.0 26:0.333333 28:0.333333 29:0.666667 35:0.383428 36:0.70922 37:0.717949 38:0.569959 39:0.650146 40:0.391304 41:0.609292 
32768.0 1:0.467162 2:0.185185 3:0.111481 4:0.363636 6:0.363636 8:0.181818 9:1.0 11:0.156038 12:0.0613857 13:0.0222218 14:0.277504 15:0.140292 16:0.070445 18:0.192982 19:0.0909091 20:0.444444 21:0.388889 22:0.166667 26:0.363636 28:0.363636 29:0.636364 30:0.25 31:0.426667 35:0.688337 36:0.896782 37:0.783217 38:0.567901 39:0.463557 40:0.425725 41:0.484387 
32768.0 1:0.294746 2:0.259259 3:0.0515804 4:0.4 6:0.533333 8:0.133333 9:1.0 11:0.1801 12:0.108887 13:0.0653372 14:0.326813 15:0.162962 16:0.121256 18:0.245614 20:0.388889 21:0.444444 22:0.0833333 26:0.266667 28:0.4 29:0.6 30:0.444444 31:0.355556 35:0.727258 36:0.917258 37:0.861538 38:0.520576 39:0.368805 40:0.373188 41:0.392232 
32768.0 1:0.467162 2:0.148148 3:0.136255 4:0.555556 6:0.666667 8:0.0740741 9:1.0 11:0.177446 12:0.0884379 13:0.0521053 14:0.35082 15:0.102638 16:0.127705 18:0.157895 19:0.0909091 20:0.333333 21:0.277778 22:0.166667 26:0.222222 28:0.555556 29:0.444444 30:0.5 31:0.164103 35:0.605579 36:0.866824 37:0.837607 38:0.566529 39:0.381924 40:0.349638 41:0.395278 
32768.0 1:0.467162 2:0.0925926 3:0.204382 4:0.333333 8:0.166667 11:0.378109 12:0.298767 13:0.189175 14:0.439505 15:0.304469 16:0.263936 18:0.105263 19:0.0909091 20:0.277778 21:0.277778 22:0.166667 26:0.333333 28:0.333333 29:0.666667 31:0.32 35:0.625345 36:0.886525 37:0.897436 38:0.45679 39:0.241983 40:0.282609 41:0.184311 
32631.711345271793 1:0.294746 2:0.111111 3:0.110529 4:0.571429 6:0.285714 8:0.190476 9:1.0 10:0.999997 11:0.176972 12:0.0782601 13:0.0440827 14:0.342424 15:0.160447 16:0.119632 18:0.105263 20:0.333333 21:0.277778 22:0.0833333 26:0.285714 28:0.571429 29:0.428571 30:0.166667 31:0.426667 35:0.610026 36:0.868432 37:0.769231 38:0.513032 39:0.323615 40:0.376812 41:0.41508 
32768.0 1:0.467162 2:0.185185 3:0.111481 4:0.454545 6:0.363636 8:0.121212 9:1.0 11:0.24559 12:0.176096 13:0.0869979 14:0.491171 15:0.345216 16:0.300969 18:0.192982 19:0.0909091 20:0.5 21:0.444444 22:0.166667 26:0.272727 28:0.454545 29:0.545455 30:0.222222 31:0.284444 35:0.748923 36:0.93195 37:0.881119 38:0.576818 39:0.441691 40:0.436594 41:0.387662 
32768.0 1:0.467162 2:0.259259 3:0.081753 4:0.4 6:0.533333 8:0.0888889 9:1.0 11:0.19602 12:0.0920121 13:0.0349925 14:0.314634 15:0.159045 16:0.0709418 18:0.263158 19:0.0909091 20:0.5 21:0.5 22:0.166667 26:0.533333 28:0.4 29:0.6 30:0.4 31:0.224561 35:0.771688 36:0.93617 37:0.861538 38:0.556241 39:0.465015 40:0.407609 41:0.476009 
9302.680776291956 1:0.467162 2:0.0740741 3:0.245259 4:0.2 6:0.4 8:0.266667 9:1.0 11:0.18209 12:0.0825562 13:0.0478959 14:0.195988 15:0.184293 16:0.111153 18:0.0877193 19:0.0909091 20:0.222222 21:0.166667 22:0.166667 26:0.2 28:0.2 29:0.8 30:0.25 31:0.474074 35:0.464946 36:0.765957 37:0.646154 38:0.593278 39:0.526239 40:0.436594 41:0.476771 
32768.0 1:0.467162 2:0.166667 3:0.122629 4:0.3 6:0.2 8:0.2 9:1.0 11:0.274627 12:0.206262 13:0.118846 14:0.490842 15:0.374928 16:0.343658 18:0.175439 19:0.0909091 20:0.5 21:0.444444 22:0.166667 28:0.3 29:0.7 30:0.111111 31:0.457143 35:0.755245 36:0.93617 37:0.861538 38:0.532236 39:0.306122 40:0.382246 41:0.336634 
32768.0 1:0.467162 2:0.111111 3:0.175185 4:0.142857 5:0.142857 8:0.190476 11:0.356077 12:0.396748 13:0.274841 14:0.654846 15:0.753584 16:0.713544 18:0.122807 19:0.0909091 20:0.444444 21:0.333333 22:0.166667 26:0.285714 28:0.142857 29:0.714286 31:0.387879 34:0.0666667 35:0.679145 36:0.911854 37:0.923077 38:0.505487 39:0.240525 40:0.338768 41:0.242193 
32768.0 1:0.467162 2:0.0925926 3:0.204382 4:0.333333 5:0.333333 7:0.333333 9:1.0 10:0.999997 11:0.41791 12:0.2482 13:0.192853 14:0.768781 15:0.295854 16:0.693801 18:0.105263 19:0.0909091 20:0.333333 21:0.277778 22:0.166667 26:1.0 28:0.333333 29:0.333333 32:0.266667 34:0.133333 35:0.625345 36:0.886525 37:0.897436 38:0.521262 39:0.379009 40:0.367754 41:0.39604 
32768.0 1:0.467162 2:0.0925926 3:0.204382 4:0.166667 6:0.333333 8:0.277778 11:0.159204 12:0.165138 13:0.141253 14:0.209685 15:0.26653 16:0.227316 18:0.105263 19:0.0909091 20:0.222222 21:0.222222 22:0.166667 26:0.333333 28:0.166667 29:0.833333 30:0.2 31:0.533333 35:0.544706 36:0.827423 37:0.717949 38:0.536351 39:0.405977 40:0.387681 41:0.421935 
32768.0 1:0.467162 2:0.166667 3:0.122629 4:0.5 6:0.2 8:0.0666667 9:1.0 10:0.999997 11:0.170149 12:0.0830555 13:0.0396153 14:0.386752 15:0.0914672 16:0.0879777 18:0.175439 19:0.0909091 20:0.5 21:0.444444 22:0.166667 26:0.2 28:0.5 29:0.5 30:0.111111 31:0.152381 35:0.755245 36:0.93617 37:0.861538 38:0.580247 39:0.4293 40:0.445652 41:0.44326 
10579.227284102282 1:0.467162 2:0.0185185 3:0.613147 8:0.333333 11:0.328358 12:0.211351 13:0.307486 14:0.223261 15:0.298259 16:0.0116738 18:0.0350877 19:0.0909091 20:0.166667 21:0.0555556 22:0.166667 29:1.0 31:0.355556 35:0.241916 36:0.531915 37:0.538462 38:0.485597 40:0.320652 41:0.243717 
32768.0 1:0.467162 2:0.148148 3:0.136255 4:0.333333 6:0.222222 8:0.148148 9:1.0 11:0.167496 12:0.0509156 13:0.0199637 14:0.28439 15:0.0691199 16:0.0522213 18:0.157895 19:0.0909091 20:0.444444 21:0.388889 22:0.166667 26:0.222222 28:0.333333 29:0.666667 30:0.125 31:0.328205 35:0.713097 36:0.919359 37:0.837607 38:0.55144 39:0.450437 40:0.402174 41:0.447829 
32768.0 1:0.467162 2:0.185185 3:0.111481 4:0.272727 8:0.212121 9:1.0 11:0.218453 12:0.128529 13:0.0398432 14:0.355492 15:0.159273 16:0.0718175 18:0.192982 19:0.0909091 20:0.611111 21:0.555556 22:0.166667 26:0.363636 28:0.272727 29:0.727273 31:0.497778 35:0.836893 36:0.967118 37:0.979021 38:0.510288 39:0.453353 40:0.351449 41:0.44326 
32768.0 1:0.467162 2:0.0925926 3:0.204382 4:0.333333 6:0.333333 8:0.111111 9:1.0 11:0.253731 12:0.111534 13:0.0590677 14:0.546255 15:0.16698 16:0.183098 18:0.105263 19:0.0909091 20:0.333333 21:0.222222 22:0.166667 26:0.333333 28:0.333333 29:0.666667 30:0.2 31:0.213333 35:0.544706 36:0.827423 37:0.717949 38:0.526749 39:0.432945 40:0.375 41:0.428027 
32768.0 1:0.467162 2:0.185185 3:0.111481 4:0.454545 8:0.151515 9:1.0 11:0.248304 12:0.19833 13:0.133637 14:0.534954 15:0.47163 16:0.462705 18:0.192982 19:0.0909091 20:0.611111 21:0.555556 22:0.166667 26:0.272727 28:0.454545 29:0.545455 31:0.355556 35:0.836893 36:0.967118 37:0.979021 38:0.526749 39:0.298834 40:0.365942 41:0.300076 
32768.0 1:0.467162 2:0.203704 3:0.102191 4:0.333333 6:0.333333 8:0.138889 9:1.0 10:0.999997 11:0.201493 12:0.115494 13:0.0617671 14:0.424827 15:0.297118 16:0.147421 18:0.210526 19:0.0909091 20:0.555556 21:0.5 22:0.166667 26:0.416667 28:0.333333 29:0.666667 30:0.2 31:0.333333 35:0.786622 36:0.945626 37:0.897436 38:0.558299 39:0.362974 40:0.416667 41:0.39604 
32768.0 1:0.294746 2:0.203704 3:0.0644755 4:0.333333 8:0.166667 9:1.0 11:0.216418 12:0.114922 13:0.0347725 14:0.278201 15:0.167144 16:0.0687766 18:0.192982 20:0.555556 21:0.611111 22:0.0833333 26:0.333333 28:0.333333 29:0.666667 31:0.426667 35:0.867261 36:0.975177 37:0.987179 38:0.539095 39:0.411808 40:0.391304 41:0.409749 
32768.0 1:0.467162 2:0.0925926 3:0.204382 4:0.166667 8:0.277778 11:0.288557 12:0.226637 13:0.170009 14:0.476522 15:0.613646 16:0.51219 18:0.105263 19:0.0909091 20:0.277778 21:0.277778 22:0.166667 26:0.166667 28:0.166667 29:0.833333 31:0.533333 35:0.625345 36:0.886525 37:0.897436 38:0.485597 39:0.368805 40:0.320652 41:0.345773 
32768.0 1:0.467162 2:0.203704 3:0.102191 4:0.416667 6:0.166667 8:0.111111 9:1.0 10:0.999997 11:0.256219 12:0.1343 13:0.098652 14:0.505945 15:0.238787 16:0.272961 18:0.210526 19:0.0909091 20:0.611111 21:0.555556 22:0.166667 26:0.25 28:0.416667 29:0.583333 30:0.0909091 31:0.266667 35:0.826942 36:0.960402 37:0.897436 38:0.51989 39:0.386297 40:0.365942 41:0.388423 
32768.0 1:0.467162 2:0.185185 3:0.111481 4:0.363636 6:0.181818 8:0.121212 9:1.0 11:0.204885 12:0.0753813 13:0.0304233 14:0.39722 15:0.083776 16:0.0621431 18:0.192982 19:0.0909091 20:0.444444 21:0.444444 22:0.166667 26:0.181818 28:0.363636 29:0.636364 30:0.111111 31:0.284444 35:0.732322 36:0.914366 37:0.783217 38:0.550754 39:0.45481 40:0.405797 41:0.474486 
32768.0 1:0.294746 2:0.148148 3:0.0859673 4:0.333333 6:0.222222 8:0.111111 11:0.303483 12:0.215674 13:0.142641 14:0.523431 15:0.316481 16:0.28742 18:0.140351 20:0.388889 21:0.388889 22:0.0833333 26:0.222222 28:0.333333 29:0.666667 30:0.125 31:0.266667 35:0.713097 36:0.919359 37:0.837607 38:0.532922 39:0.272595 40:0.382246 41:0.261995 
16379.771707787064 1:0.294746 2:0.0555556 3:0.193426 4:0.25 8:0.166667 9:1.0 11:0.231343 12:0.0404986 13:0.00485904 14:0.310459 15:0.0513949 16:0.0114429 18:0.0526316 20:0.222222 21:0.166667 22:0.0833333 26:0.75 28:0.25 29:0.75 31:0.304762 35:0.483833 36:0.797872 37:0.807692 38:0.561043 39:0.862974 40:0.42029 41:0.674791 
32768.0 1:0.66366 2:0.037037 3:0.580699 4:0.666667 8:0.222222 11:0.293532 12:0.187346 13:0.129476 14:0.50047 15:0.138705 16:0.0841162 18:0.105263 19:0.363636 20:0.277778 21:0.111111 22:0.25 23:1.0 26:0.666667 28:0.666667 29:0.333333 31:0.213333 35:0.383428 36:0.70922 37:0.717949 38:0.489712 39:0.161808 40:0.268116 41:0.203351 
32768.0 1:0.566481 2:0.0555556 3:0.371752 4:0.25 8:0.25 11:0.432836 12:0.3934 13:0.486663 14:0.400906 15:0.464105 16:0.685473 18:0.105263 19:0.272727 20:0.222222 21:0.166667 22:0.166667 28:0.25 29:0.75 31:0.32 35:0.483833 36:0.797872 37:0.807692 38:0.351166 39:0.117347 40:0.143116 41:0.12262 
32768.0 1:0.467162 2:0.148148 3:0.136255 4:0.333333 6:0.444444 8:0.148148 9:1.0 10:0.999997 11:0.177446 12:0.0819539 13:0.041069 14:0.235071 15:0.128355 16:0.0758816 18:0.157895 19:0.0909091 20:0.277778 21:0.333333 22:0.166667 26:0.222222 28:0.333333 29:0.666667 30:0.285714 31:0.328205 35:0.659338 36:0.893092 37:0.837607 38:0.572702 39:0.405248 40:0.434783 41:0.423458 
32768.0 1:0.294746 2:0.203704 3:0.0644755 4:0.416667 6:0.333333 8:0.0555556 9:1.0 11:0.206468 12:0.111569 13:0.0476051 14:0.491669 15:0.277423 16:0.159914 18:0.192982 20:0.388889 21:0.444444 22:0.0833333 25:0.25 26:0.333333 28:0.416667 29:0.5 30:0.222222 31:0.142222 33:0.25 35:0.786622 36:0.945626 37:0.897436 38:0.621399 39:0.491983 40:0.5 41:0.511805 
32768.0 1:0.467162 2:0.203704 3:0.102191 4:0.333333 6:0.5 8:0.166667 9:1.0 10:0.999997 11:0.151741 12:0.0401879 13:0.0214304 14:0.240739 15:0.109839 16:0.069574 18:0.210526 19:0.0909091 20:0.5 21:0.444444 22:0.166667 26:0.0833333 28:0.333333 29:0.666667 30:0.333333 31:0.4 35:0.746303 36:0.930851 37:0.897436 38:0.555556 39:0.454082 40:0.413043 41:0.43412 
32768.0 1:0.294746 2:0.12963 3:0.0967132 4:0.375 8:0.208333 9:1.0 11:0.261194 12:0.141314 13:0.102976 14:0.481331 15:0.306311 16:0.182909 18:0.122807 20:0.388889 21:0.388889 22:0.0833333 23:1.0 26:0.375 28:0.375 29:0.625 31:0.484848 35:0.725749 36:0.930851 37:0.942308 38:0.528121 39:0.330904 40:0.376812 41:0.352628 
28160.54397531576 1:0.294746 2:0.037037 3:0.257902 4:0.333333 8:0.222222 10:0.999997 11:0.164179 12:0.123569 13:0.148481 14:0.15625 15:0.131407 16:0.0956041 18:0.0350877 20:0.111111 21:0.111111 22:0.0833333 26:0.333333 28:0.333333 29:0.666667 31:0.355556 35:0.383428 36:0.70922 37:0.717949 38:0.489712 39:0.336735 40:0.331522 41:0.389185 
32768.0 1:0.66366 2:0.240741 3:0.124436 4:0.357143 6:0.428571 8:0.190476 9:1.0 10:0.999997 11:0.217484 12:0.142826 13:0.0715132 14:0.464501 15:0.239332 16:0.256382 18:0.298246 19:0.363636 20:0.5 21:0.5 22:0.333333 25:0.214286 26:0.428571 28:0.357143 29:0.571429 30:0.3 31:0.406349 33:0.25 35:0.817383 36:0.955276 37:0.923077 38:0.547325 39:0.455539 40:0.402174 41:0.476009 
32768.0 1:0.467162 2:0.12963 3:0.153287 4:0.25 6:0.5 8:0.166667 10:0.999997 11:0.190299 12:0.152298 13:0.0965784 14:0.256026 15:0.267631 16:0.239474 18:0.140351 19:0.0909091 20:0.277778 21:0.277778 22:0.166667 26:0.5 28:0.25 29:0.75 30:0.333333 31:0.355556 35:0.604791 36:0.864362 37:0.807692 38:0.534979 39:0.427114 40:0.38587 41:0.412795 
32768.0 1:0.467162 2:0.0555556 3:0.306574 4:0.75 9:1.0 11:0.223881 12:0.161888 13:0.162312 14:0.504295 15:0.138798 16:0.201015 18:0.0701754 19:0.0909091 20:0.277778 21:0.166667 22:0.166667 26:0.75 28:0.75 29:0.25 35:0.483833 36:0.797872 37:0.807692 38:0.445816 39:0.284257 40:0.268116 41:0.313024 
32768.0 1:0.294746 2:0.166667 3:0.0773706 4:0.4 6:0.4 8:0.2 9:1.0 10:0.999997 11:0.167164 12:0.0489443 13:0.021398 14:0.324572 15:0.0550114 16:0.0495774 18:0.157895 20:0.388889 21:0.388889 22:0.0833333 26:0.2 28:0.4 29:0.6 30:0.25 31:0.492308 35:0.706862 36:0.914894 37:0.861538 38:0.565158 39:0.455539 40:0.425725 41:0.479817 
5784.164578438227 1:0.294746 2:0.0925926 3:0.128951 4:0.5 6:0.333333 8:0.111111 9:1.0 11:0.21393 12:0.101664 13:0.0484318 14:0.392645 15:0.101617 16:0.12924 18:0.0877193 20:0.277778 21:0.222222 22:0.0833333 28:0.5 29:0.5 30:0.2 31:0.237037 35:0.544706 36:0.827423 37:0.717949 38:0.829904 39:0.393586 40:0.775362 41:0.408225 
25509.365540261977 1:0.467162 2:0.0740741 3:0.245259 4:0.2 6:0.4 8:0.266667 9:1.0 11:0.18209 12:0.0825562 13:0.0478959 14:0.195988 15:0.184293 16:0.111153 18:0.0877193 19:0.0909091 20:0.222222 21:0.166667 22:0.166667 26:0.2 28:0.2 29:0.8 30:0.25 31:0.474074 35:0.464946 36:0.765957 37:0.646154 38:0.593278 39:0.526239 40:0.436594 41:0.476771 
32768.0 1:0.467162 2:0.111111 3:0.175185 4:0.285714 6:0.285714 8:0.142857 11:0.26226 12:0.192528 13:0.186805 14:0.497289 15:0.345474 16:0.401373 18:0.122807 19:0.0909091 20:0.333333 21:0.277778 22:0.166667 23:1.0 26:0.714286 28:0.285714 29:0.714286 30:0.166667 31:0.290909 35:0.610026 36:0.868432 37:0.769231 38:0.556241 39:0.351312 40:0.40942 41:0.359482 
32768.0 1:0.294746 2:0.240741 3:0.0552647 4:0.428571 6:0.428571 8:0.166667 9:1.0 10:0.999997 11:0.164179 12:0.127661 13:0.109885 14:0.407735 15:0.23105 16:0.352086 18:0.22807 20:0.444444 21:0.444444 22:0.0833333 25:0.214286 26:0.428571 28:0.428571 29:0.5 30:0.333333 31:0.439216 33:0.25 35:0.769779 36:0.933565 37:0.846154 38:0.580247 39:0.478134 40:0.445652 41:0.474486 
32768.0 1:0.467162 2:0.148148 3:0.136255 4:0.333333 6:0.444444 8:0.111111 9:1.0 11:0.233831 12:0.138609 13:0.0776152 14:0.471635 15:0.278045 16:0.231578 18:0.157895 19:0.0909091 20:0.388889 21:0.333333 22:0.166667 26:0.222222 28:0.333333 29:0.666667 30:0.285714 31:0.246154 35:0.659338 36:0.893092 37:0.837607 38:0.534294 39:0.459184 40:0.373188 41:0.397563 
32768.0 1:0.761908 2:0.222222 3:0.153846 4:0.384615 6:0.153846 8:0.128205 9:1.0 11:0.182549 12:0.0616514 13:0.0188482 14:0.33711 15:0.103028 16:0.0551431 18:0.280702 19:0.363636 20:0.666667 21:0.555556 22:0.333333 26:0.307692 28:0.384615 29:0.615385 30:0.0909091 31:0.266667 35:0.806713 36:0.944228 37:0.828402 38:0.569959 39:0.45481 40:0.418478 41:0.459254 
32768.0 1:0.761908 2:0.111111 3:0.285714 4:0.285714 8:0.190476 9:1.0 11:0.202559 12:0.095666 13:0.0367306 14:0.32831 15:0.198903 16:0.127427 18:0.175439 19:0.363636 20:0.5 21:0.333333 22:0.333333 26:0.285714 28:0.285714 29:0.714286 31:0.304762 35:0.679145 36:0.911854 37:0.923077 38:0.617284 39:0.54519 40:0.440217 41:0.480579 
32768.0 1:0.467162 2:0.0740741 3:0.245259 4:0.2 6:0.4 8:0.266667 9:1.0 11:0.18209 12:0.0825562 13:0.0478959 14:0.195988 15:0.184293 16:0.111153 18:0.0877193 19:0.0909091 20:0.222222 21:0.166667 22:0.166667 26:0.2 28:0.2 29:0.8 30:0.25 31:0.474074 35:0.464946 36:0.765957 37:0.646154 38:0.593278 39:0.526239 40:0.436594 41:0.476771 
32768.0 1:0.467162 2:0.12963 3:0.153287 4:0.25 6:0.5 8:0.208333 9:1.0 10:0.999997 11:0.227612 12:0.0608838 13:0.0325758 14:0.385958 15:0.112808 16:0.129912 18:0.140351 19:0.0909091 20:0.388889 21:0.277778 22:0.166667 26:0.25 28:0.25 29:0.75 30:0.333333 31:0.444444 35:0.604791 36:0.864362 37:0.807692 38:0.589849 39:0.519679 40:0.458333 41:0.528561 
32768.0 1:0.294746 2:0.222222 3:0.0595158 4:0.230769 6:0.615385 8:0.230769 9:1.0 11:0.216992 12:0.122468 13:0.0408478 14:0.46952 15:0.243863 16:0.139551 18:0.210526 20:0.333333 21:0.333333 22:0.0833333 25:0.230769 26:0.153846 28:0.230769 29:0.692308 30:0.571429 31:0.6 33:0.25 35:0.69506 36:0.906459 37:0.828402 38:0.558985 39:0.537901 40:0.418478 41:0.552932 
-32768.0 1:0.467162 2:0.0185185 3:0.613147 4:0.5 9:1.0 10:0.999998 11:0.0447761 12:0.00336603 13:0.00450473 14:0.127578 15:0.0290134 16:0.0080286 17:1.0 18:0.0350877 19:0.0909091 20:0.5 21:0.5 22:0.166667 26:0.5 28:0.5 29:0.5 30:0.2 35:0.241916 36:0.531915 37:0.538462 38:0.589849 40:0.458333 41:0.476771 
-32768.0 1:0.294746 2:0.12963 3:0.0967132 4:0.375 8:0.166667 9:1.0 11:0.205224 12:0.108953 13:0.117811 14:0.397002 15:0.311773 16:0.409494 18:0.122807 20:0.444444 21:0.388889 22:0.0833333 26:0.375 28:0.375 29:0.625 31:0.387879 35:0.725749 36:0.930851 37:0.942308 38:0.61454 39:0.487609 40:0.490942 41:0.508759 
-32768.0 1:0.294746 2:0.166667 3:0.0773706 4:0.4 6:0.4 8:0.0666667 9:1.0 11:0.131343 12:0.0497174 13:0.0172233 14:0.181434 15:0.138766 16:0.0350734 18:0.157895 20:0.388889 21:0.388889 22:0.0833333 23:1.0 26:0.2 28:0.4 29:0.6 30:0.25 31:0.164103 35:0.706862 36:0.914894 37:0.861538 38:0.580247 39:0.46137 40:0.445652 41:0.482102 
-17579.442478951278 1:0.966065 2:0.0555556 3:0.633977 4:0.25 5:0.5 8:0.583333 9:1.0 11:0.537313 12:0.721003 13:0.156248 14:0.868207 15:0.727166 16:0.403781 18:0.210526 19:0.818182 20:0.555556 21:0.166667 22:0.666667 24:1.0 26:1.0 28:0.25 29:0.25 31:0.466667 34:0.133333 35:0.483833 36:0.797872 37:0.807692 38:0.449931 39:0.0838192 40:0.273551 
-32768.0 1:0.589493 2:0.12963 3:0.193426 4:0.375 6:0.25 8:0.208333 9:1.0 10:0.999997 11:0.149254 12:0.0710409 13:0.0365845 14:0.3125 15:0.207208 16:0.10645 18:0.157895 19:0.181818 20:0.444444 21:0.333333 22:0.25 26:0.625 28:0.375 29:0.625 30:0.142857 31:0.410256 35:0.66527 36:0.897606 37:0.807692 38:0.703704 39:0.450437 40:0.608696 41:0.431074 
-32768.0 1:0.467162 2:0.12963 3:0.153287 4:0.25 8:0.291667 9:1.0 10:0.999997 11:0.216418 12:0.0953708 13:0.0494964 14:0.36886 15:0.221453 16:0.166213 18:0.140351 19:0.0909091 20:0.388889 21:0.388889 22:0.166667 26:0.25 28:0.25 29:0.75 31:0.622222 35:0.725749 36:0.930851 37:0.942308 38:0.567901 39:0.439504 40:0.429348 41:0.459254 
-32768.0 1:0.467162 2:0.12963 3:0.153287 4:0.25 8:0.291667 9:1.0 10:0.999997 11:0.216418 12:0.0953708 13:0.0494964 14:0.36886 15:0.221453 16:0.166213 18:0.140351 19:0.0909091 20:0.388889 21:0.388889 22:0.166667 26:0.25 28:0.25 29:0.75 31:0.622222 35:0.725749 36:0.930851 37:0.942308 38:0.567901 39:0.439504 40:0.429348 41:0.459254 
-32768.0 1:0.467162 2:0.185185 3:0.111481 4:0.545455 6:0.363636 8:0.0606061 9:1.0 10:0.999997 11:0.242877 12:0.186372 13:0.0902042 14:0.60776 15:0.287602 16:0.174013 18:0.192982 19:0.0909091 20:0.5 21:0.388889 22:0.166667 26:0.454545 28:0.545455 29:0.454545 30:0.25 31:0.142222 35:0.688337 36:0.896782 37:0.783217 38:0.462963 39:0.37172 40:0.29529 41:0.388423 
-32768.0 1:0.589493 2:0.166667 3:0.154741 4:0.3 6:0.4 8:0.233333 9:1.0 10:0.999997 11:0.167164 12:0.107214 13:0.0872055 14:0.307843 15:0.254342 16:0.26207 18:0.192982 19:0.181818 20:0.333333 21:0.388889 22:0.25 26:0.6 28:0.3 29:0.7 30:0.25 31:0.497778 35:0.706862 36:0.914894 37:0.861538 38:0.622771 39:0.421283 40:0.501812 41:0.440213 
-32768.0 1:0.467162 2:0.185185 3:0.111481 4:0.454545 6:0.363636 8:0.0909091 9:1.0 10:0.999997 11:0.19403 12:0.151117 13:0.135106 14:0.513202 15:0.193302 16:0.274238 18:0.192982 19:0.0909091 20:0.5 21:0.388889 22:0.166667 26:0.454545 28:0.454545 29:0.545455 30:0.25 31:0.213333 35:0.688337 36:0.896782 37:0.783217 38:0.558985 39:0.33965 40:0.416667 41:0.351104 
-32768.0 1:0.467162 2:0.259259 3:0.081753 4:0.466667 6:0.666667 8:0.0888889 9:1.0 11:0.118408 12:0.059592 13:0.030838 14:0.218336 15:0.145875 16:0.0731628 18:0.263158 19:0.0909091 20:0.555556 21:0.444444 22:0.166667 26:0.333333 28:0.466667 29:0.533333 30:0.555556 31:0.224561 35:0.739433 36:0.926714 37:0.861538 38:0.569273 39:0.40379 40:0.445652 41:0.418888 
-32768.0 1:0.294746 2:0.0555556 3:0.193426 4:0.5 11:0.350746 12:0.339189 13:0.275234 14:0.513044 15:0.368206 16:0.462616 18:0.0526316 20:0.166667 21:0.166667 22:0.0833333 26:0.25 28:0.5 29:0.5 35:0.483833 36:0.797872 37:0.807692 38:0.440329 39:0.14723 40:0.26087 41:0.243717 
-32768.0 1:0.467162 2:0.277778 3:0.0766434 4:0.375 6:0.625 8:0.1875 9:1.0 11:0.164179 12:0.0767517 13:0.0351217 14:0.317345 15:0.167978 16:0.119326 18:0.280702 19:0.0909091 20:0.555556 21:0.5 22:0.166667 26:0.3125 28:0.375 29:0.625 30:0.5 31:0.48 35:0.774814 36:0.939162 37:0.875 38:0.540466 39:0.346939 40:0.393116 41:0.380807 
-32768.0 1:0.294746 2:0.0925926 3:0.128951 4:0.166667 6:0.333333 8:0.222222 9:1.0 11:0.273632 12:0.149497 13:0.106059 14:0.469714 15:0.225078 16:0.298338 18:0.0877193 20:0.222222 21:0.222222 22:0.0833333 28:0.166667 29:0.833333 30:0.2 31:0.474074 35:0.544706 36:0.827423 37:0.717949 38:0.486968 39:0.415452 40:0.322464 41:0.389947 
-32768.0 1:0.467162 2:0.12963 3:0.153287 4:0.125 6:0.5 8:0.25 9:1.0 11:0.216418 12:0.123362 13:0.0822595 14:0.275753 15:0.204186 16:0.166327 18:0.140351 19:0.0909091 20:0.333333 21:0.277778 22:0.166667 26:0.375 28:0.125 29:0.875 30:0.333333 31:0.533333 35:0.604791 36:0.864362 37:0.807692 38:0.534979 39:0.38484 40:0.38587 41:0.405941 
-32768.0 1:0.467162 2:0.111111 3:0.175185 4:0.428571 6:0.571429 8:0.190476 9:1.0 11:0.147122 12:0.101247 13:0.0706918 14:0.477178 15:0.294213 16:0.175795 18:0.122807 19:0.0909091 20:0.333333 21:0.222222 22:0.166667 26:0.428571 28:0.428571 29:0.571429 30:0.4 31:0.387879 35:0.540907 36:0.825011 37:0.769231 38:0.606996 39:0.430029 40:0.458333 41:0.449353 
-32768.0 1:0.467162 2:0.111111 3:0.175185 4:0.428571 6:0.571429 8:0.190476 9:1.0 11:0.147122 12:0.101247 13:0.0706918 14:0.477178 15:0.294213 16:0.175795 18:0.122807 19:0.0909091 20:0.333333 21:0.222222 22:0.166667 26:0.428571 28:0.428571 29:0.571429 30:0.4 31:0.387879 35:0.540907 36:0.825011 37:0.769231 38:0.606996 39:0.430029 40:0.458333 41:0.449353 
-32768.0 1:0.467162 2:0.111111 3:0.175185 4:0.428571 8:0.0952381 9:1.0 11:0.206823 12:0.154394 13:0.118096 14:0.342424 15:0.376322 16:0.295029 18:0.122807 19:0.0909091 20:0.333333 21:0.333333 22:0.166667 26:0.285714 28:0.428571 29:0.571429 31:0.193939 35:0.679145 36:0.911854 37:0.923077 38:0.585734 39:0.381924 40:0.442029 41:0.399086 
-32768.0 1:0.68438 2:0.0740741 3:0.359298 4:0.4 11:0.289552 12:0.148105 13:0.0963324 14:0.502921 15:0.138541 16:0.334379 18:0.122807 19:0.272727 20:0.333333 21:0.222222 22:0.25 28:0.4 29:0.6 35:0.561712 36:0.851064 37:0.861538 38:0.507545 39:0.304665 40:0.347826 41:0.267327 
-32768.0 1:0.68438 2:0.0740741 3:0.359298 4:0.4 11:0.289552 12:0.148105 13:0.0963324 14:0.502921 15:0.138541 16:0.334379 18:0.122807 19:0.272727 20:0.333333 21:0.222222 22:0.25 28:0.4 29:0.6 35:0.561712 36:0.851064 37:0.861538 38:0.507545 39:0.304665 40:0.347826 41:0.267327 
-32768.0 1:0.467162 2:0.0185185 3:0.613147 4:0.5 9:1.0 10:0.999997 11:0.0746269 12:0.00194875 13:0.00831098 14:0.127578 15:0.0102212 16:0.00719805 17:1.0 18:0.0350877 19:0.0909091 20:0.611111 21:0.555556 22:0.166667 26:0.5 28:0.5 29:0.5 30:0.181818 35:0.241916 36:0.531915 37:0.538462 38:0.540466 40:0.393116 41:0.444783 
-32768.0 1:0.294746 2:0.12963 3:0.0967132 4:0.25 6:0.25 8:0.208333 11:0.339552 12:0.236744 13:0.14818 14:0.531248 15:0.361976 16:0.315457 18:0.122807 20:0.333333 21:0.333333 22:0.0833333 26:0.125 28:0.25 29:0.75 30:0.142857 31:0.484848 35:0.66527 36:0.897606 37:0.807692 38:0.541838 39:0.411079 40:0.394928 41:0.418888 
-20786.35297916796 1:0.467162 2:0.0555556 3:0.306574 4:0.5 5:0.25 11:0.298507 12:0.410195 13:0.475406 14:0.702401 15:0.724619 16:0.770425 18:0.0701754 19:0.0909091 20:0.277778 21:0.166667 22:0.166667 26:1.0 28:0.5 29:0.25 34:0.0666667 35:0.483833 36:0.797872 37:0.807692 38:0.445816 39:0.074344 40:0.268116 41:0.0776847 
-32768.0 1:0.68438 2:0.0740741 3:0.359298 4:0.4 11:0.289552 12:0.148105 13:0.0963324 14:0.502921 15:0.138541 16:0.334379 18:0.122807 19:0.272727 20:0.333333 21:0.222222 22:0.25 28:0.4 29:0.6 35:0.561712 36:0.851064 37:0.861538 38:0.507545 39:0.304665 40:0.347826 41:0.267327 
-32768.0 1:0.294746 2:0.148148 3:0.0859673 4:0.333333 6:0.222222 8:0.148148 9:1.0 10:0.999997 11:0.174129 12:0.0592066 13:0.023221 14:0.329404 15:0.152566 16:0.0730492 18:0.140351 20:0.444444 21:0.388889 22:0.0833333 26:0.222222 28:0.333333 29:0.666667 30:0.125 31:0.355556 35:0.713097 36:0.919359 37:0.837607 38:0.589163 39:0.419825 40:0.445652 41:0.39604 
-32768.0 1:0.467162 2:0.12963 3:0.153287 4:0.375 8:0.166667 9:1.0 11:0.160448 12:0.0765919 13:0.0388571 14:0.391194 15:0.120163 16:0.0939411 18:0.140351 19:0.0909091 20:0.5 21:0.388889 22:0.166667 26:0.25 28:0.375 29:0.625 31:0.355556 35:0.725749 36:0.930851 37:0.942308 38:0.540466 39:0.531341 40:0.393116 41:0.522468 
-26335.09505491858 1:0.294746 2:0.0740741 3:0.154741 4:0.2 8:0.2 11:0.283582 12:0.23013 13:0.244412 14:0.434514 15:0.344395 16:0.714226 18:0.0701754 20:0.277778 21:0.222222 22:0.0833333 26:0.4 28:0.2 29:0.8 31:0.4 35:0.561712 36:0.851064 37:0.861538 38:0.484225 39:0.293003 40:0.320652 41:0.306169 
-32768.0 1:0.467162 2:0.203704 3:0.102191 4:0.333333 6:0.166667 8:0.138889 9:1.0 10:0.999997 11:0.223881 12:0.120891 13:0.0855393 14:0.391492 15:0.240522 16:0.222727 18:0.210526 19:0.0909091 20:0.611111 21:0.555556 22:0.166667 26:0.333333 28:0.333333 29:0.666667 30:0.0909091 31:0.333333 35:0.826942 36:0.960402 37:0.897436 38:0.552812 39:0.483236 40:0.40942 41:0.482864 
-32768.0 1:0.467162 2:0.148148 3:0.136255 4:0.333333 8:0.148148 9:1.0 11:0.21393 12:0.116287 13:0.0251286 14:0.448038 15:0.165052 16:0.0257192 18:0.157895 19:0.0909091 20:0.444444 21:0.444444 22:0.166667 26:0.333333 28:0.333333 29:0.666667 31:0.328205 35:0.766857 36:0.945626 37:0.957265 38:0.652263 39:0.469388 40:0.469203 41:0.488957 
-26851.70317043003 1:0.294746 2:0.0555556 3:0.193426 8:0.333333 10:0.999997 11:0.402985 12:0.284553 13:0.189624 14:0.434982 15:0.241592 16:0.1025 18:0.0526316 20:0.222222 21:0.166667 22:0.0833333 29:1.0 31:0.609524 35:0.483833 36:0.797872 37:0.807692 38:0.54321 39:0.164723 40:0.396739 41:0.159177 
-32768.0 1:0.467162 2:0.185185 3:0.111481 4:0.363636 5:0.0909091 6:0.727273 8:0.121212 9:1.0 11:0.207598 12:0.239519 13:0.0563786 14:0.533947 15:0.663136 16:0.323734 18:0.192982 19:0.0909091 20:0.333333 21:0.222222 22:0.166667 26:0.454545 28:0.363636 29:0.545455 30:0.8 31:0.284444 34:0.0666667 35:0.528999 36:0.808862 37:0.685315 38:0.497942 39:0.40379 40:0.336957 41:0.421935 
-32768.0 1:0.467162 2:0.185185 3:0.111481 4:0.363636 5:0.0909091 6:0.727273 8:0.121212 9:1.0 11:0.207598 12:0.239519 13:0.0563786 14:0.533947 15:0.663136 16:0.323734 18:0.192982 19:0.0909091 20:0.333333 21:0.222222 22:0.166667 26:0.454545 28:0.363636 29:0.545455 30:0.8 31:0.284444 34:0.0666667 35:0.528999 36:0.808862 37:0.685315 38:0.497942 39:0.40379 40:0.336957 41:0.421935 
-32768.0 1:0.566481 2:0.0740741 3:0.297401 4:0.2 6:0.4 8:0.333333 9:1.0 10:0.999997 11:0.134328 12:0.0396837 13:0.0692838 14:0.114109 15:0.0654118 16:0.104837 18:0.122807 19:0.272727 20:0.277778 21:0.166667 22:0.166667 28:0.2 29:0.8 30:0.25 31:0.484848 35:0.464946 36:0.765957 37:0.646154 38:0.576818 39:0.465015 40:0.418478 41:0.472201 
-32768.0 1:0.294746 2:0.0925926 3:0.128951 4:0.333333 6:0.666667 8:0.111111 9:1.0 11:0.154229 12:0.107738 13:0.0810548 14:0.346788 15:0.248367 16:0.136872 18:0.0877193 20:0.222222 21:0.166667 22:0.0833333 26:0.333333 28:0.333333 29:0.666667 30:0.5 31:0.237037 35:0.464067 36:0.768322 37:0.717949 38:0.59808 39:0.363703 40:0.469203 41:0.374714 
-32768.0 1:0.467162 2:0.148148 3:0.136255 4:0.222222 8:0.259259 9:1.0 10:0.999997 11:0.223881 12:0.0731314 13:0.0399307 14:0.349386 15:0.150283 16:0.138471 18:0.157895 19:0.0909091 20:0.555556 21:0.444444 22:0.166667 26:0.222222 28:0.222222 29:0.777778 31:0.574359 35:0.766857 36:0.945626 37:0.957265 38:0.537723 39:0.530612 40:0.38587 41:0.520183 
-32768.0 1:0.589493 2:0.0740741 3:0.309482 4:0.4 6:0.4 8:0.133333 9:1.0 10:0.999997 11:0.19403 12:0.0706866 13:0.0572577 14:0.415363 15:0.113413 16:0.176476 18:0.105263 19:0.181818 20:0.222222 21:0.166667 22:0.25 26:0.6 28:0.4 29:0.6 30:0.25 31:0.213333 35:0.464946 36:0.765957 37:0.646154 38:0.587106 39:0.587464 40:0.36413 41:0.495811 
-32768.0 1:0.294746 2:0.037037 3:0.257902 4:0.333333 8:0.222222 9:1.0 10:0.999997 11:0.263682 12:0.0680292 13:0.0431746 14:0.397793 15:0.0232254 16:0.103167 18:0.0350877 20:0.166667 21:0.111111 22:0.0833333 26:0.666667 28:0.333333 29:0.666667 31:0.355556 35:0.383428 36:0.70922 37:0.717949 38:0.652263 39:0.924198 40:0.53442 41:0.695354 
-32768.0 1:0.467162 2:0.148148 3:0.136255 4:0.444444 6:0.444444 8:0.148148 9:1.0 11:0.240464 12:0.115968 13:0.0268023 14:0.451166 15:0.121773 16:0.0452703 18:0.157895 19:0.0909091 20:0.333333 21:0.333333 22:0.166667 26:0.444444 28:0.444444 29:0.555556 30:0.285714 31:0.328205 35:0.659338 36:0.893092 37:0.837607 38:0.550069 39:0.400875 40:0.411232 41:0.418126 
-32768.0 1:0.467162 2:0.111111 3:0.175185 4:0.428571 6:0.285714 8:0.0952381 9:1.0 11:0.151386 12:0.0688264 13:0.0338325 14:0.287013 15:0.123032 16:0.0692773 18:0.122807 19:0.0909091 20:0.333333 21:0.277778 22:0.166667 26:0.142857 28:0.428571 29:0.571429 30:0.166667 31:0.193939 35:0.610026 36:0.868432 37:0.769231 38:0.777092 39:0.524781 40:0.63587 41:0.548363 
-32768.0 1:0.467162 2:0.111111 3:0.175185 4:0.571429 6:0.285714 8:0.0952381 9:1.0 10:0.999997 11:0.202559 12:0.152534 13:0.148014 14:0.42684 15:0.310524 16:0.249628 18:0.122807 19:0.0909091 20:0.277778 21:0.277778 22:0.166667 26:0.285714 28:0.571429 29:0.428571 30:0.166667 31:0.193939 35:0.610026 36:0.868432 37:0.769231 38:0.541152 39:0.360058 40:0.346014 41:0.351104 
-32768.0 1:0.467162 2:0.203704 3:0.102191 4:0.25 6:0.333333 8:0.166667 9:1.0 11:0.233831 12:0.114268 13:0.0522616 14:0.413672 15:0.262334 16:0.151337 18:0.210526 19:0.0909091 20:0.444444 21:0.444444 22:0.166667 25:0.25 26:0.333333 28:0.25 29:0.666667 30:0.222222 31:0.4 33:0.25 35:0.786622 36:0.945626 37:0.897436 38:0.648834 39:0.475219 40:0.536232 41:0.453922 
-32768.0 1:0.467162 2:0.0925926 3:0.204382 4:0.333333 8:0.111111 11:0.353234 12:0.263841 13:0.167843 14:0.334849 15:0.240426 16:0.226567 18:0.105263 19:0.0909091 20:0.333333 21:0.277778 22:0.166667 26:0.333333 28:0.333333 29:0.666667 31:0.213333 35:0.625345 36:0.886525 37:0.897436 38:0.48011 39:0.279883 40:0.313406 41:0.261995 
-32768.0 1:0.68438 2:0.259259 3:0.119766 4:0.466667 6:0.8 8:0.0888889 9:1.0 10:0.999997 11:0.126368 12:0.0408574 13:0.0237087 14:0.235779 15:0.0646046 16:0.0369107 18:0.298246 19:0.272727 20:0.388889 21:0.333333 22:0.333333 26:0.2 28:0.466667 29:0.533333 30:0.857143 31:0.203175 35:0.662747 36:0.898345 37:0.861538 38:0.605624 39:0.476676 40:0.485507 41:0.498096 
-32768.0 1:0.68438 2:0.259259 3:0.119766 4:0.466667 6:0.8 8:0.0888889 9:1.0 10:0.999997 11:0.126368 12:0.0408574 13:0.0237087 14:0.235779 15:0.0646046 16:0.0369107 18:0.298246 19:0.272727 20:0.388889 21:0.333333 22:0.333333 26:0.2 28:0.466667 29:0.533333 30:0.857143 31:0.203175 35:0.662747 36:0.898345 37:0.861538 38:0.605624 39:0.476676 40:0.485507 41:0.498096 
-14629.430271665962 1:0.294746 2:0.277778 3:0.0483566 4:0.3125 6:0.625 8:0.166667 9:1.0 11:0.218284 12:0.144656 13:0.0479779 14:0.460661 15:0.221278 16:0.0937554 18:0.263158 20:0.5 21:0.5 22:0.0833333 25:0.1875 26:0.3125 28:0.3125 29:0.625 30:0.5 31:0.449123 33:0.25 35:0.816468 36:0.955785 37:0.942308 38:0.555556 39:0.553936 40:0.413043 41:0.566641 
-32768.0 1:0.467162 2:0.185185 3:0.111481 4:0.454545 6:0.363636 9:1.0 10:0.999997 11:0.180461 12:0.0973491 13:0.071357 14:0.377246 15:0.278722 16:0.240686 18:0.192982 19:0.0909091 20:0.388889 21:0.333333 22:0.166667 25:0.272727 26:0.454545 28:0.454545 29:0.454545 30:0.285714 33:0.25 35:0.688337 36:0.896782 37:0.783217 38:0.638546 39:0.606414 40:0.51087 41:0.559025 
-32768.0 1:0.589493 2:0.0740741 3:0.309482 4:0.4 6:0.4 8:0.133333 9:1.0 10:0.999997 11:0.19403 12:0.0706866 13:0.0572577 14:0.415363 15:0.113413 16:0.176476 18:0.105263 19:0.181818 20:0.222222 21:0.166667 22:0.25 26:0.6 28:0.4 29:0.6 30:0.25 31:0.213333 35:0.464946 36:0.765957 37:0.646154 38:0.587106 39:0.587464 40:0.36413 41:0.495811 
-32768.0 1:0.589493 2:0.111111 3:0.221059 4:0.428571 6:0.285714 9:1.0 10:0.999997 11:0.202559 12:0.11068 13:0.0701249 14:0.313826 15:0.151599 16:0.175065 18:0.140351 19:0.181818 20:0.388889 21:0.277778 22:0.25 26:0.142857 28:0.428571 29:0.571429 30:0.166667 35:0.610026 36:0.868432 37:0.769231 38:0.494513 39:0.311953 40:0.344203 41:0.319878 
-32768.0 1:0.467162 2:0.0185185 3:0.613147 4:0.5 9:1.0 10:0.999997 11:0.0746269 12:0.00194875 13:0.00831098 14:0.127578 15:0.0102212 16:0.00719805 17:1.0 18:0.0350877 19:0.0909091 20:0.5 21:0.444444 22:0.166667 26:0.5 28:0.5 29:0.5 30:0.111111 35:0.241916 36:0.531915 37:0.538462 38:0.540466 40:0.393116 41:0.444783 
-32768.0 1:0.294746 2:0.222222 3:0.0595158 4:0.384615 6:0.769231 8:0.153846 9:1.0 11:0.134328 12:0.05907 13:0.0344906 14:0.21955 15:0.134519 16:0.0929856 18:0.210526 20:0.388889 21:0.333333 22:0.0833333 26:0.230769 28:0.384615 29:0.615385 30:0.714286 31:0.4 35:0.657842 36:0.893869 37:0.828402 38:0.613855 39:0.437318 40:0.516304 41:0.448591 
-32768.0 1:0.589493 2:0.203704 3:0.128951 4:0.333333 6:0.666667 8:0.166667 9:1.0 11:0.206468 12:0.0442762 13:0.0113546 14:0.333962 15:0.0693885 16:0.0235814 18:0.22807 19:0.181818 20:0.444444 21:0.388889 22:0.25 23:1.0 26:0.333333 28:0.333333 29:0.666667 30:0.5 31:0.376471 35:0.705983 36:0.916076 37:0.897436 38:0.578875 39:0.541545 40:0.443841 41:0.565118 
-32768.0 1:0.294746 2:0.111111 3:0.110529 4:0.285714 6:0.285714 8:0.285714 9:1.0 10:0.999997 11:0.181237 12:0.0689593 13:0.0334565 14:0.289032 15:0.210367 16:0.111273 18:0.105263 20:0.333333 21:0.277778 22:0.0833333 26:0.142857 28:0.285714 29:0.714286 30:0.166667 31:0.64 35:0.610026 36:0.868432 37:0.769231 38:0.641975 39:0.419825 40:0.445652 41:0.422696 
-32768.0 1:0.294746 2:0.0555556 3:0.193426 8:0.333333 10:0.999997 11:0.402985 12:0.284553 13:0.189624 14:0.434982 15:0.241592 16:0.1025 18:0.0526316 20:0.222222 21:0.166667 22:0.0833333 29:1.0 31:0.609524 35:0.483833 36:0.797872 37:0.807692 38:0.54321 39:0.164723 40:0.396739 41:0.159177 
-32768.0 1:0.294746 2:0.037037 3:0.257902 4:0.333333 8:0.222222 9:1.0 10:0.999997 11:0.263682 12:0.0680292 13:0.0431746 14:0.397793 15:0.0232254 16:0.103167 18:0.0350877 20:0.166667 21:0.111111 22:0.0833333 26:0.666667 28:0.333333 29:0.666667 31:0.355556 35:0.383428 36:0.70922 37:0.717949 38:0.652263 39:0.924198 40:0.53442 41:0.695354 
-32768.0 1:0.68438 2:0.148148 3:0.19961 4:0.222222 6:0.222222 8:0.259259 9:1.0 10:0.999997 11:0.197347 12:0.0772769 13:0.0610765 14:0.273035 15:0.11361 16:0.14489 18:0.192982 19:0.272727 20:0.444444 21:0.333333 22:0.333333 26:0.222222 28:0.222222 29:0.777778 30:0.142857 31:0.497778 35:0.639047 36:0.866824 37:0.717949 38:0.546639 39:0.472303 40:0.393116 41:0.489718 
-32768.0 1:0.294746 2:0.185185 3:0.0703369 4:0.363636 6:0.363636 8:0.181818 9:1.0 11:0.215739 12:0.102044 13:0.0611383 14:0.427554 15:0.158982 16:0.154054 18:0.175439 20:0.388889 21:0.444444 22:0.0833333 26:0.454545 28:0.363636 29:0.636364 30:0.222222 31:0.457143 35:0.748923 36:0.93195 37:0.881119 38:0.575446 39:0.419825 40:0.40942 41:0.395278 
-32768.0 1:0.68438 2:0.037037 3:0.59883 4:0.666667 6:0.666667 8:0.222222 9:1.0 11:0.363184 12:0.163695 13:0.132054 14:0.0601407 15:0.0166522 16:0.0357629 18:0.0877193 19:0.272727 20:0.222222 21:0.0555556 22:0.25 26:0.333333 28:0.666667 29:0.333333 30:0.5 31:0.237037 35:0.222151 36:0.472813 37:0.358974 38:0.430727 39:0.294461 40:0.197464 41:0.307692 
-32768.0 1:0.294746 2:0.185185 3:0.0703369 4:0.363636 6:0.363636 8:0.151515 9:1.0 10:0.999997 11:0.202171 12:0.0842393 13:0.0364971 14:0.377958 15:0.184587 16:0.0861768 18:0.175439 20:0.388889 21:0.388889 22:0.0833333 26:0.181818 28:0.363636 29:0.636364 30:0.25 31:0.380952 35:0.688337 36:0.896782 37:0.783217 38:0.738683 39:0.440233 40:0.53442 41:0.460015 
-32768.0 1:0.467162 2:0.0185185 3:0.613147 4:0.5 9:1.0 10:0.999997 11:0.0746269 12:0.00194875 13:0.00831098 14:0.127578 15:0.0102212 16:0.00719805 17:1.0 18:0.0350877 19:0.0909091 20:0.333333 21:0.222222 22:0.166667 26:0.5 28:0.5 29:0.5 30:0.4 35:0.241916 36:0.531915 37:0.538462 38:0.540466 40:0.393116 41:0.444783 
-32768.0 1:0.294746 2:0.12963 3:0.0967132 4:0.5 6:0.5 9:1.0 11:0.149254 12:0.0872214 13:0.0757048 14:0.201718 15:0.201333 16:0.247053 18:0.122807 20:0.333333 21:0.277778 22:0.0833333 26:0.125 28:0.5 29:0.5 30:0.333333 35:0.604791 36:0.864362 37:0.807692 38:0.540466 39:0.456268 40:0.393116 41:0.467631 
-32768.0 1:0.467162 2:0.148148 3:0.136255 4:0.222222 6:0.222222 8:0.185185 9:1.0 10:0.999997 11:0.250415 12:0.147219 13:0.0699263 14:0.372489 15:0.204155 16:0.149737 18:0.157895 19:0.0909091 20:0.444444 21:0.388889 22:0.166667 26:0.222222 28:0.222222 29:0.777778 30:0.125 31:0.410256 35:0.713097 36:0.919359 37:0.837607 38:0.549383 39:0.390671 40:0.387681 41:0.402133 
-32768.0 1:0.467162 2:0.148148 3:0.136255 4:0.444444 6:0.444444 8:0.0740741 9:1.0 11:0.131012 12:0.0491086 13:0.0357735 14:0.254169 15:0.136262 16:0.108022 18:0.157895 19:0.0909091 20:0.388889 21:0.333333 22:0.166667 26:0.333333 28:0.444444 29:0.555556 30:0.285714 31:0.164103 35:0.659338 36:0.893092 37:0.837607 38:0.555556 39:0.400875 40:0.413043 41:0.418888 
-32768.0 1:0.294746 2:0.12963 3:0.0967132 4:0.625 6:0.25 8:0.0833333 9:1.0 10:0.999997 11:0.182836 12:0.116748 13:0.101108 14:0.297384 15:0.179541 16:0.262648 18:0.122807 20:0.388889 21:0.333333 22:0.0833333 26:0.5 28:0.625 29:0.375 30:0.142857 31:0.193939 35:0.66527 36:0.897606 37:0.807692 38:0.51989 39:0.405977 40:0.365942 41:0.412795 
-32768.0 1:0.467162 2:0.148148 3:0.136255 4:0.444444 6:0.444444 8:0.222222 9:1.0 10:0.999997 11:0.197347 12:0.118626 13:0.10663 14:0.391428 15:0.319672 16:0.440911 18:0.157895 19:0.0909091 20:0.388889 21:0.333333 22:0.166667 26:0.111111 28:0.444444 29:0.555556 30:0.285714 31:0.492308 35:0.659338 36:0.893092 37:0.837607 38:0.543896 39:0.396501 40:0.382246 41:0.414318 
-15357.061633482728 1:0.467162 2:0.296296 3:0.072135 4:0.470588 6:0.588235 8:0.117647 9:1.0 10:0.999997 11:0.136084 12:0.0603523 13:0.0233073 14:0.25087 15:0.126785 16:0.0583833 18:0.298246 19:0.0909091 20:0.5 21:0.5 22:0.166667 23:1.0 26:0.294118 28:0.470588 29:0.529412 30:0.5 31:0.304762 35:0.768114 36:0.934992 37:0.886878 38:0.574074 39:0.43586 40:0.440217 41:0.474486 
-32768.0 1:0.294746 2:0.0925926 3:0.128951 4:0.5 6:0.333333 8:0.111111 9:1.0 10:0.999997 11:0.129353 12:0.0714458 13:0.0897538 14:0.27416 15:0.140966 16:0.250445 18:0.0877193 20:0.277778 21:0.222222 22:0.0833333 26:0.333333 28:0.5 29:0.5 30:0.2 31:0.237037 35:0.544706 36:0.827423 37:0.717949 38:0.567901 39:0.409621 40:0.429348 41:0.428027 
-32768.0 1:0.294746 2:0.222222 3:0.0595158 4:0.384615 6:0.615385 8:0.179487 9:1.0 11:0.223881 12:0.117305 13:0.0637538 14:0.311497 15:0.148138 16:0.0862129 18:0.210526 20:0.5 21:0.444444 22:0.0833333 26:0.230769 28:0.384615 29:0.615385 30:0.444444 31:0.466667 35:0.746325 36:0.931638 37:0.911243 38:0.524691 39:0.446064 40:0.384058 41:0.466108 
-14373.003285175733 1:0.467162 2:0.37037 3:0.058395 4:0.285714 6:0.285714 8:0.142857 9:1.0 11:0.199716 12:0.110064 13:0.0587408 14:0.397445 15:0.247638 16:0.150145 18:0.368421 19:0.0909091 20:0.555556 21:0.611111 22:0.166667 25:0.285714 26:0.285714 28:0.285714 29:0.619048 30:0.25 31:0.384 33:0.5 35:0.837824 36:0.950451 37:0.871795 38:0.567901 39:0.569971 40:0.413043 41:0.579589 
-24650.211454931356 1:0.467162 2:0.0555556 3:0.306574 4:0.5 5:0.25 11:0.298507 12:0.410195 13:0.475406 14:0.702401 15:0.724619 16:0.770425 18:0.0701754 19:0.0909091 20:0.277778 21:0.166667 22:0.166667 26:1.0 28:0.5 29:0.25 34:0.0666667 35:0.483833 36:0.797872 37:0.807692 38:0.445816 39:0.074344 40:0.268116 41:0.0776847 
-32768.0 1:0.467162 2:0.222222 3:0.0943303 4:0.384615 6:0.307692 8:0.128205 9:1.0 10:0.999997 11:0.159587 12:0.081468 13:0.048532 14:0.344738 15:0.14156 16:0.0899841 18:0.22807 19:0.0909091 20:0.5 21:0.444444 22:0.166667 26:0.307692 28:0.384615 29:0.615385 30:0.222222 31:0.313725 35:0.709107 36:0.893869 37:0.745562 38:0.540466 39:0.409621 40:0.413043 41:0.442498 
-32768.0 1:0.467162 2:0.203704 3:0.102191 4:0.25 6:0.333333 8:0.222222 9:1.0 10:0.999997 11:0.189055 12:0.094644 13:0.0624757 14:0.206426 15:0.180121 16:0.176647 18:0.210526 19:0.0909091 20:0.444444 21:0.444444 22:0.166667 26:0.166667 28:0.25 29:0.75 30:0.222222 31:0.533333 35:0.731084 36:0.916076 37:0.807692 38:0.513032 39:0.456997 40:0.356884 41:0.476771 
-32768.0 1:0.743244 2:0.0925926 3:0.325168 4:0.333333 6:0.333333 8:0.222222 9:1.0 11:0.223881 12:0.143727 13:0.101463 14:0.347439 15:0.215386 16:0.216606 18:0.175439 19:0.454545 20:0.388889 21:0.222222 22:0.416667 26:0.166667 28:0.333333 29:0.666667 30:0.2 31:0.304762 35:0.544706 36:0.827423 37:0.717949 38:0.577503 39:0.25656 40:0.442029 41:0.32064 
-32768.0 1:0.294746 2:0.037037 3:0.257902 4:0.333333 8:0.222222 11:0.293532 12:0.200367 13:0.176704 14:0.197184 15:0.21046 16:0.0422277 18:0.0350877 20:0.111111 21:0.111111 22:0.0833333 28:0.333333 29:0.666667 31:0.355556 35:0.383428 36:0.70922 37:0.717949 38:0.467078 39:0.290087 40:0.309783 41:0.318355 
-32768.0 1:0.467162 2:0.0925926 3:0.204382 4:0.333333 8:0.111111 9:1.0 11:0.18408 12:0.0778236 13:0.0461642 14:0.256921 15:0.0945655 16:0.0817204 18:0.105263 19:0.0909091 20:0.333333 21:0.277778 22:0.166667 26:0.166667 28:0.333333 29:0.666667 31:0.213333 35:0.625345 36:0.886525 37:0.897436 38:0.502058 39:0.531341 40:0.342391 41:0.551409 
-15797.517433130744 1:0.467162 2:0.222222 3:0.0943303 4:0.230769 5:0.230769 6:0.153846 7:0.230769 8:0.153846 9:1.0 11:0.382319 12:0.275306 13:0.128843 14:0.637095 15:0.49167 16:0.392358 18:0.22807 19:0.0909091 20:0.555556 21:0.5 22:0.166667 24:1.0 26:0.461538 28:0.230769 29:0.538462 30:0.2 31:0.376471 32:0.235294 34:0.2 35:0.769495 36:0.931638 37:0.828402 38:0.589849 39:0.463557 40:0.445652 41:0.484387 
-32768.0 1:0.467162 2:0.148148 3:0.136255 4:0.333333 6:0.222222 8:0.185185 9:1.0 10:0.999997 11:0.233831 12:0.147538 13:0.0711545 14:0.430542 15:0.274878 16:0.0951628 18:0.157895 19:0.0909091 20:0.444444 21:0.388889 22:0.166667 26:0.222222 28:0.333333 29:0.666667 30:0.125 31:0.410256 35:0.713097 36:0.919359 37:0.837607 38:0.541838 39:0.336735 40:0.349638 41:0.332826 
-32768.0 1:0.761908 2:0.0555556 3:0.5 5:0.25 8:0.416667 11:0.402985 12:0.479074 13:0.175067 14:0.616808 15:0.487596 16:0.260635 18:0.122807 19:0.363636 20:0.333333 21:0.166667 22:0.333333 26:0.25 29:0.75 31:0.484848 34:0.0666667 35:0.483833 36:0.797872 37:0.807692 38:0.447188 39:0.172012 40:0.269928 
-32768.0 1:0.294746 2:0.0555556 3:0.193426 4:0.5 6:0.5 8:0.333333 9:1.0 10:0.999997 11:0.164179 12:0.0560178 13:0.00614466 14:0.49616 15:0.115159 16:0.0149564 18:0.0526316 20:0.0555556 21:0.111111 22:0.0833333 26:0.75 28:0.5 29:0.5 30:0.333333 31:0.609524 35:0.362874 36:0.664894 37:0.538462 38:0.552812 39:0.381924 40:0.40942 41:0.374714 
-32768.0 1:0.761908 2:0.185185 3:0.181818 4:0.454545 6:0.181818 8:0.181818 9:1.0 10:0.999997 11:0.17232 12:0.0754699 13:0.0378223 14:0.265236 15:0.140418 16:0.0967401 18:0.245614 19:0.363636 20:0.5 21:0.444444 22:0.333333 26:0.181818 28:0.454545 29:0.545455 30:0.111111 31:0.355556 35:0.732322 36:0.914366 37:0.783217 38:0.576818 39:0.415452 40:0.429348 41:0.421173 
-32768.0 1:0.761908 2:0.037037 3:0.666667 8:0.555556 11:0.402985 12:0.277166 13:0.153853 14:0.289988 15:0.263693 16:0.251747 18:0.105263 19:0.363636 20:0.333333 21:0.111111 22:0.333333 26:0.333333 29:1.0 31:0.533333 35:0.383428 36:0.70922 37:0.717949 38:0.541152 39:0.325073 40:0.289855 41:0.315308 
-32768.0 1:0.761908 2:0.037037 3:0.666667 8:0.555556 11:0.402985 12:0.277166 13:0.153853 14:0.289988 15:0.263693 16:0.251747 18:0.105263 19:0.363636 20:0.333333 21:0.111111 22:0.333333 26:0.333333 29:1.0 31:0.533333 35:0.383428 36:0.70922 37:0.717949 38:0.541152 39:0.325073 40:0.289855 41:0.315308 
-32768.0 1:0.761908 2:0.185185 3:0.181818 4:0.545455 6:0.363636 8:0.121212 9:1.0 10:0.999997 11:0.185889 12:0.13969 13:0.0886581 14:0.392364 15:0.234183 16:0.139935 18:0.245614 19:0.363636 20:0.555556 21:0.388889 22:0.333333 26:0.272727 28:0.545455 29:0.454545 30:0.25 31:0.237037 35:0.688337 36:0.896782 37:0.783217 38:0.576132 39:0.40379 40:0.445652 41:0.421935 
-32768.0 1:0.467162 2:0.111111 3:0.175185 4:0.285714 8:0.142857 9:1.0 11:0.249467 12:0.196514 13:0.134513 14:0.551299 15:0.395213 16:0.322937 18:0.122807 19:0.0909091 20:0.388889 21:0.333333 22:0.166667 26:0.428571 28:0.285714 29:0.714286 31:0.290909 35:0.679145 36:0.911854 37:0.923077 38:0.597394 39:0.364431 40:0.458333 41:0.351866 
